-2.937944047152996063e-02
-3.480988740921020508e-02
5.643677650368772447e-05
3.030274808406829834e-02
-3.826102241873741150e-02
-1.639118790626525879e-01
-1.591532826423645020e-01
7.497365027666091919e-02
-3.462231252342462540e-03
-9.749784320592880249e-02
-6.931801140308380127e-02
-1.707786507904529572e-02
1.030771434307098389e-02
-1.540742516517639160e-01
-5.500025302171707153e-02
1.617796868085861206e-01
8.765753358602523804e-02
2.439676076173782349e-01
5.622366070747375488e-02
1.273028999567031860e-01
-1.242423616349697113e-02
-2.216201834380626678e-02
6.825950741767883301e-02
-7.746265828609466553e-02
1.522293537855148315e-01
-3.410918414592742920e-01
-3.419399261474609375e-01
-9.653048962354660034e-02
2.676146924495697021e-01
-1.661033034324645996e-01
5.139154195785522461e-02
-1.353469491004943848e-02
-1.290283501148223877e-01
-2.588836848735809326e-02
-9.767759591341018677e-02
-1.274646222591400146e-01
-1.416993886232376099e-01
1.705981791019439697e-01
-1.241483092308044434e-01
-7.948994636535644531e-03
-6.116747483611106873e-02
4.694994911551475525e-02
9.574069082736968994e-02
-2.566246874630451202e-02
1.355666518211364746e-01
-3.831839933991432190e-02
-1.046470776200294495e-01
7.433395087718963623e-02
-6.344204396009445190e-02
-3.423143178224563599e-02
1.499131023883819580e-01
7.197986822575330734e-03
-6.130773201584815979e-02
-1.068016439676284790e-01
1.193797513842582703e-01
-5.023410171270370483e-02
-5.490979552268981934e-02
-8.096206933259963989e-02
-1.501755863428115845e-01
-9.519372135400772095e-02
4.950613155961036682e-02
4.972606152296066284e-02
1.249631643295288086e-01
1.353236734867095947e-01
-2.603329718112945557e-01
4.642274603247642517e-02
1.789150238037109375e-01
3.130894899368286133e-02
1.064297482371330261e-01
2.821216285228729248e-01
6.653162837028503418e-02
-4.112514108419418335e-02
7.013459503650665283e-02
1.258437931537628174e-01
-1.580030769109725952e-01
7.881769537925720215e-02
7.010804861783981323e-02
7.171306014060974121e-02
-1.219926029443740845e-01
-1.173632293939590454e-01
-2.537181675434112549e-01
1.049890965223312378e-01
1.083420068025588989e-01
4.741834104061126709e-02
-6.086818873882293701e-02
7.178527116775512695e-02
-6.072285398840904236e-02
-1.194306015968322754e-01
-1.726909279823303223e-01
1.980353891849517822e-01
1.712805628776550293e-01
-5.563960969448089600e-02
4.101714491844177246e-02
-8.550479263067245483e-02
4.116882756352424622e-02
-5.748344212770462036e-02
2.817019820213317871e-03
-4.837546870112419128e-02
2.404188662767410278e-01
-9.099762141704559326e-02
