-3.976045846939086914e-01
4.169411212205886841e-02
1.102898120880126953e-01
9.681934863328933716e-02
9.939824789762496948e-02
-1.422479655593633652e-02
-5.106496810913085938e-02
-8.265120387077331543e-01
4.452073574066162109e-02
5.190979316830635071e-02
-5.174353122711181641e-01
7.368034566752612591e-04
-1.954551339149475098e-01
1.688019931316375732e-02
-2.425057254731655121e-02
4.369090870022773743e-02
-2.546375803649425507e-02
-6.409113109111785889e-02
1.626606285572052002e-02
-4.126899540424346924e-01
3.496470749378204346e-01
-4.887608885765075684e-01
-3.468813002109527588e-02
-2.872413396835327148e-02
-3.118932545185089111e-01
9.549159556627273560e-03
1.244344264268875122e-01
4.950747266411781311e-02
-1.841168552637100220e-01
1.382875442504882812e-01
-6.398721039295196533e-02
-4.890894889831542969e-02
1.090963110327720642e-01
9.412898868322372437e-02
5.867784842848777771e-03
5.021003633737564087e-02
6.604777276515960693e-02
-4.303240478038787842e-01
-9.975305944681167603e-02
-7.839690148830413818e-02
-3.738223016262054443e-01
-3.129072785377502441e-01
-5.635166168212890625e-02
1.879012025892734528e-02
5.519527941942214966e-02
5.422044545412063599e-02
-4.209399223327636719e-02
1.665488630533218384e-01
-5.566192269325256348e-01
-9.162338078022003174e-02
-1.754125356674194336e-01
2.219500392675399780e-01
1.938066035509109497e-01
4.851573333144187927e-02
-2.280443906784057617e-01
2.653449773788452148e-04
6.812620908021926880e-02
9.035948663949966431e-02
-3.569982945919036865e-03
4.140729829668998718e-02
2.179178148508071899e-01
-3.026526868343353271e-01
1.751202344894409180e-02
-1.431308686733245850e-02
1.321941167116165161e-01
4.364913329482078552e-02
-7.654923014342784882e-03
7.288023084402084351e-02
1.574014425277709961e-01
-1.794506013393402100e-01
1.490171700716018677e-01
5.350573733448982239e-02
3.210183382034301758e-01
-5.829041078686714172e-02
2.542494237422943115e-01
-2.997142672538757324e-01
-7.241462823003530502e-03
3.170735388994216919e-02
-3.106956779956817627e-01
2.727992087602615356e-02
-1.165806502103805542e-01
-2.145360410213470459e-01
-5.453526973724365234e-02
3.164589870721101761e-03
2.449980080127716064e-01
-4.645435884594917297e-02
1.871063411235809326e-01
6.220872402191162109e-01
-2.793390750885009766e-01
1.165284216403961182e-01
-7.999322563409805298e-02
2.297040307894349098e-03
-3.598205745220184326e-02
8.098825067281723022e-02
2.105146460235118866e-02
-8.262809365987777710e-02
-8.535832166671752930e-02
4.147287905216217041e-01
8.904030174016952515e-02
-1.841852813959121704e-02
-9.280345439910888672e-01
4.447526484727859497e-02
-8.572444915771484375e-01
-8.356347680091857910e-03
2.336508035659790039e-02
1.759332418441772461e-01
-2.098993957042694092e-02
-4.314564168453216553e-01
5.969274044036865234e-02
2.777403406798839569e-02
2.254384942352771759e-02
5.651637166738510132e-02
-3.668753430247306824e-02
-2.124974131584167480e-02
-1.627342104911804199e-01
-9.678867645561695099e-03
-2.111634053289890289e-02
-2.172703593969345093e-01
-6.548848748207092285e-02
-3.417891263961791992e-01
-8.440014123916625977e-01
5.870584249496459961e-01
2.914920821785926819e-02
-2.489719539880752563e-02
-7.659331560134887695e-01
2.550302818417549133e-02
2.164364308118820190e-01
1.004644334316253662e-01
-4.347439855337142944e-03
-3.031909763813018799e-01
-4.977307468652725220e-02
-8.568173646926879883e-02
8.292581886053085327e-02
9.434735029935836792e-02
-1.835864409804344177e-02
7.311742007732391357e-02
-3.675806522369384766e-01
4.173561334609985352e-01
-8.673784881830215454e-02
-2.961222827434539795e-02
-2.668272554874420166e-01
-2.574548423290252686e-01
-2.942350134253501892e-02
-8.632552623748779297e-02
-5.512362718582153320e-02
2.397633641958236694e-01
-5.977197363972663879e-02
-1.720086187124252319e-01
7.123773545026779175e-02
3.577233850955963135e-02
-4.243744313716888428e-01
-1.429325193166732788e-01
7.919162511825561523e-02
-3.617607802152633667e-02
1.359148472547531128e-01
5.658199638128280640e-02
4.168356209993362427e-02
-8.042953163385391235e-02
8.072537928819656372e-02
-3.356903046369552612e-02
-2.076326012611389160e-01
-6.442998051643371582e-01
-6.203136593103408813e-02
-2.114269882440567017e-02
1.346136182546615601e-01
2.597696892917156219e-02
8.590801805257797241e-02
1.184519380331039429e-02
-1.414093561470508575e-02
-5.867315828800201416e-02
1.722237914800643921e-01
-3.739829063415527344e-01
-5.630831122398376465e-01
7.406073063611984253e-02
-3.110181689262390137e-01
-3.819601833820343018e-01
1.018450334668159485e-01
-7.881160825490951538e-02
-5.850152373313903809e-01
9.232503920793533325e-02
3.154337406158447266e-01
4.106849133968353271e-01
1.807550936937332153e-01
-3.556320443749427795e-02
5.729135274887084961e-01
4.015297442674636841e-02
1.217577904462814331e-01
1.407522708177566528e-01
8.421602845191955566e-02
-8.253528922796249390e-02
1.569160073995590210e-02
-5.363999679684638977e-02
-9.675592184066772461e-02
-6.118980795145034790e-02
5.833084881305694580e-02
-1.594588160514831543e-03
-1.574325561523437500e-02
-5.532662868499755859e-01
1.509971022605895996e-01
9.716565161943435669e-02
5.823671445250511169e-02
-3.346188366413116455e-02
1.555575281381607056e-01
-3.045184910297393799e-02
1.007195338606834412e-01
3.873538598418235779e-02
6.456956267356872559e-03
1.818404197692871094e-01
-1.297766622155904770e-02
-2.013590484857559204e-01
-8.886183798313140869e-02
1.455316543579101562e-01
2.671979367733001709e-01
-8.696259558200836182e-02
-1.046298071742057800e-01
3.121426105499267578e-01
5.835511162877082825e-02
3.515499532222747803e-01
5.536245554685592651e-02
-1.507616639137268066e-01
-2.913601398468017578e-01
2.715889811515808105e-01
1.220379304140806198e-02
9.566962718963623047e-03
-3.824067413806915283e-01
1.452685426920652390e-02
-1.464642733335494995e-01
1.548731476068496704e-01
2.063121646642684937e-01
1.938253790140151978e-01
1.115151494741439819e-02
1.698270440101623535e-03
1.269334703683853149e-01
3.846401721239089966e-02
5.623368173837661743e-02
-8.492471277713775635e-02
-7.870423048734664917e-02
-5.459826588630676270e-01
-4.014054685831069946e-02
7.922469824552536011e-02
2.195907384157180786e-01
-4.577925801277160645e-02
2.859822101891040802e-02
-2.306064777076244354e-02
3.108694404363632202e-02
2.478471212089061737e-02
-6.913763284683227539e-02
4.933810532093048096e-01
-2.024218887090682983e-01
-8.091469854116439819e-02
1.263941675424575806e-01
5.589594244956970215e-01
1.073396131396293640e-01
8.845599740743637085e-02
4.029240012168884277e-01
-9.745184332132339478e-02
8.562523871660232544e-02
4.121758043766021729e-03
5.147968977689743042e-02
7.032457739114761353e-02
-2.862836420536041260e-02
-4.589895308017730713e-01
-8.311504125595092773e-02
-9.870035946369171143e-02
-1.338773313909769058e-02
3.180686011910438538e-02
-4.845812544226646423e-02
8.712471276521682739e-02
1.404598355293273926e-01
1.892495602369308472e-01
-6.430704146623611450e-02
2.502751648426055908e-01
6.002464294433593750e-01
-7.151676714420318604e-02
2.035950310528278351e-02
-3.749757707118988037e-01
8.694324642419815063e-02
-2.297838032245635986e-02
-7.898409366607666016e-01
1.043169200420379639e-02
-1.254470646381378174e-01
-2.238503843545913696e-01
-3.267957642674446106e-02
2.989410795271396637e-02
1.216126233339309692e-01
1.230765879154205322e-02
-8.721548318862915039e-02
-1.036425232887268066e-01
2.260470092296600342e-01
1.562671512365341187e-01
3.186605870723724365e-02
4.076661169528961182e-02
5.940643697977066040e-02
4.614525288343429565e-02
-5.022580623626708984e-01
-6.846489012241363525e-02
9.402830153703689575e-02
-4.321661591529846191e-01
-4.222069680690765381e-01
2.798504382371902466e-02
3.390341699123382568e-01
-3.812841325998306274e-02
-3.392410576343536377e-01
8.866702765226364136e-02
-1.134219691157341003e-01
4.773444682359695435e-02
5.068091303110122681e-02
1.754497177898883820e-02
-6.063579767942428589e-02
1.019538640975952148e-01
2.138566076755523682e-01
1.669015139341354370e-01
3.040583729743957520e-01
1.854909211397171021e-02
-2.682428061962127686e-02
-2.021730989217758179e-01
-1.362560689449310303e-02
-1.430645883083343506e-01
3.016110509634017944e-02
7.261484861373901367e-02
3.811706006526947021e-01
-1.325960010290145874e-01
-1.520801242440938950e-02
4.250012338161468506e-03
3.082881681621074677e-03
1.089857965707778931e-01
5.117852985858917236e-02
2.507982030510902405e-02
-1.402332633733749390e-01
1.651174277067184448e-01
-7.345591485500335693e-02
-4.824993759393692017e-02
1.481503248214721680e-01
1.369394361972808838e-02
5.080171860754489899e-03
6.208242103457450867e-02
5.045855790376663208e-02
-4.674668610095977783e-01
-8.424937725067138672e-03
-7.109199464321136475e-02
-1.757728308439254761e-02
-4.321535229682922363e-01
-7.406213879585266113e-02
4.697651416063308716e-02
-3.731061518192291260e-02
-1.302059292793273926e-01
-7.857694476842880249e-02
-9.249625205993652344e-01
-2.062669023871421814e-02
-6.574943661689758301e-02
3.477010428905487061e-01
6.545029282569885254e-01
3.553279638290405273e-01
-5.102361366152763367e-02
-2.367589473724365234e-01
-9.590005874633789062e-02
5.114647001028060913e-02
-9.239532053470611572e-03
-6.864194571971893311e-02
-2.200330980122089386e-02
8.987654931843280792e-03
-4.284718334674835205e-01
-1.899804919958114624e-02
7.447540014982223511e-02
6.994149088859558105e-02
-5.311725661158561707e-02
-3.153303265571594238e-02
-7.332251965999603271e-02
-1.962786316871643066e-01
-1.260888129472732544e-01
-1.972798705101013184e-01
2.298854142427444458e-01
7.146692872047424316e-01
6.022036075592041016e-03
3.631478250026702881e-01
8.874014765024185181e-02
-9.068966656923294067e-02
-1.973608881235122681e-02
1.976294815540313721e-01
5.821157246828079224e-02
1.278325766324996948e-01
-6.432160735130310059e-02
-1.303474511951208115e-02
-4.875066503882408142e-02
7.741385698318481445e-02
5.604299157857894897e-02
-8.086019754409790039e-02
-2.408313155174255371e-01
3.315473720431327820e-02
-1.270801424980163574e-01
-1.504368036985397339e-01
8.608537912368774414e-02
4.579230397939682007e-02
4.978590458631515503e-02
-5.825445428490638733e-02
3.495433181524276733e-02
-1.645491272211074829e-02
-3.453488349914550781e-01
-8.599546551704406738e-01
-9.495808929204940796e-02
-2.870879173278808594e-01
-7.194824516773223877e-02
-3.778630197048187256e-01
3.582671284675598145e-03
3.157725930213928223e-02
1.959444135427474976e-01
-3.964079543948173523e-02
-4.301132261753082275e-01
-1.637595295906066895e-01
1.290228515863418579e-01
1.615484505891799927e-01
1.217877399176359177e-02
-7.091063261032104492e-02
-4.722774773836135864e-02
2.448397502303123474e-02
1.631262004375457764e-01
-1.441936101764440536e-02
-2.250579148530960083e-01
-8.666852861642837524e-02
6.375426650047302246e-01
-1.811653524637222290e-01
-5.624852776527404785e-01
4.205616191029548645e-02
4.407649487257003784e-02
-1.748838424682617188e-01
6.318621337413787842e-02
-4.361184686422348022e-02
-2.431182265281677246e-01
9.700658172369003296e-02
2.403412759304046631e-02
-5.937576293945312500e-03
-9.653337299823760986e-02
1.303259935230016708e-02
-5.039584636688232422e-02
-9.697613120079040527e-02
4.218792915344238281e-02
-2.925520241260528564e-01
1.964489370584487915e-01
8.332779258489608765e-02
-6.347835063934326172e-03
-3.281256258487701416e-01
1.732622981071472168e-01
5.997813493013381958e-02
-2.444381080567836761e-02
-9.914435446262359619e-02
-3.192773833870887756e-02
-4.072664678096771240e-02
3.822938501834869385e-01
5.357537865638732910e-01
-1.301370710134506226e-01
5.568948984146118164e-01
1.057817414402961731e-01
-1.088371127843856812e-01
-1.179505046457052231e-02
-2.364855706691741943e-01
3.388514369726181030e-02
-6.157523393630981445e-02
-9.053584188222885132e-02
-8.114548772573471069e-02
-6.126312538981437683e-02
-2.380920387804508209e-02
-1.355732530355453491e-01
9.416160732507705688e-02
3.627759963274002075e-02
2.597198181319981813e-04
-2.135587856173515320e-02
-1.112024933099746704e-01
-4.144377633929252625e-02
-6.419839709997177124e-02
-3.679572343826293945e-01
1.354126185178756714e-01
4.255381822586059570e-01
-1.588852286338806152e+00
4.191085696220397949e-03
2.293684780597686768e-01
2.824208438396453857e-01
2.967851422727108002e-02
-2.374313771724700928e-02
6.512423604726791382e-02
-8.540993183851242065e-02
1.466041244566440582e-02
1.597445905208587646e-01
-1.488263309001922607e-01
-8.368894457817077637e-02
-7.404914498329162598e-02
-4.264910146594047546e-02
8.561602979898452759e-02
5.154228806495666504e-01
-1.257069110870361328e+00
5.458012595772743225e-02
6.696624308824539185e-02
-8.277270942926406860e-02
-5.675119161605834961e-02
2.390463650226593018e-02
7.054730504751205444e-02
7.051634043455123901e-02
3.621607273817062378e-02
-1.281921714544296265e-01
2.888674139976501465e-01
-5.663501098752021790e-02
-2.506496608257293701e-01
8.018084615468978882e-02
1.059659957885742188e+00
2.993404865264892578e-03
-1.096744649112224579e-02
-1.363296508789062500e-01
9.719917923212051392e-02
-7.522834092378616333e-02
1.362300664186477661e-01
-1.627989858388900757e-01
-1.010437369346618652e+00
-2.184145711362361908e-02
1.852764338254928589e-01
-7.391443848609924316e-02
8.263377845287322998e-02
8.278752677142620087e-03
3.189138695597648621e-02
2.126846909523010254e-01
5.780414491891860962e-02
-9.676720201969146729e-02
-2.826014906167984009e-02
-1.797251701354980469e-01
-5.243190005421638489e-02
4.298616200685501099e-02
-4.803291261196136475e-01
1.430112868547439575e-02
7.445882260799407959e-02
-8.740942180156707764e-02
-2.122764885425567627e-01
-2.491963356733322144e-01
6.313205510377883911e-02
5.530456453561782837e-02
-3.104714863002300262e-02
6.590019911527633667e-02
3.691353276371955872e-02
1.838006377220153809e-01
-5.530606955289840698e-02
4.832374155521392822e-01
5.291357636451721191e-03
2.342263609170913696e-02
5.946024507284164429e-02
2.688597328960895538e-02
-8.587490022182464600e-02
-6.766913831233978271e-02
-3.899675607681274414e-02
3.728047478944063187e-03
6.683085113763809204e-02
5.634346008300781250e-01
5.600698590278625488e-01
1.659573763608932495e-01
-4.799617826938629150e-02
-4.026426374912261963e-01
5.292779803276062012e-01
2.085826732218265533e-02
-2.242613881826400757e-01
-1.142559200525283813e-02
5.358000844717025757e-02
8.332588523626327515e-02
7.757762819528579712e-02
1.360034197568893433e-01
-2.566565871238708496e-01
2.843527495861053467e-02
-1.152263581752777100e-02
3.502883017063140869e-03
-6.968467682600021362e-02
-2.024930668994784355e-03
-1.066410392522811890e-01
-8.043123781681060791e-02
-8.249453455209732056e-02
3.235314488410949707e-01
-2.499301880598068237e-01
-6.973784565925598145e-01
-1.841612756252288818e-01
7.075572758913040161e-02
9.826308488845825195e-02
1.082638800144195557e-01
-3.824729472398757935e-02
-9.938977658748626709e-03
-5.043469667434692383e-01
6.045264750719070435e-02
1.856428384780883789e-01
-6.702248752117156982e-02
4.834820330142974854e-02
1.014141365885734558e-01
-7.028136253356933594e-01
5.299895256757736206e-02
-2.688204310834407806e-02
-3.289796411991119385e-02
7.084989547729492188e-02
-3.809969872236251831e-02
8.655725419521331787e-02
3.149887546896934509e-02
8.559299260377883911e-02
9.597504884004592896e-02
4.360328614711761475e-01
4.489470273256301880e-02
-3.305820375680923462e-02
6.567839384078979492e-01
-3.251175284385681152e-01
-4.672300815582275391e-02
2.070060372352600098e-01
6.001495569944381714e-02
-2.098355144262313843e-01
-6.567119061946868896e-02
5.382965877652168274e-02
-2.234919816255569458e-01
-2.097113430500030518e-02
-3.653784990310668945e-01
3.100051311776041985e-03
7.079380005598068237e-02
9.998732060194015503e-02
6.423676759004592896e-02
-7.926720976829528809e-01
-4.512871056795120239e-02
2.703738864511251450e-03
-1.462450474500656128e-01
-9.355764836072921753e-02
1.912122368812561035e-01
8.034800738096237183e-02
4.599320292472839355e-01
3.326965868473052979e-01
5.013278126716613770e-02
-3.853952977806329727e-03
4.806715995073318481e-02
6.813722848892211914e-01
-1.828131079673767090e-01
-5.372153595089912415e-02
-5.344212800264358521e-02
3.750565648078918457e-02
-8.512313663959503174e-02
2.816542983055114746e-03
9.120244532823562622e-02
-6.914722174406051636e-02
-6.259107589721679688e-02
-9.335401654243469238e-02
1.869012117385864258e-01
1.982014775276184082e-01
3.170955181121826172e-01
3.641072660684585571e-02
-2.622778713703155518e-02
3.316704332828521729e-01
1.261145174503326416e-01
-5.523224920034408569e-02
4.124516248703002930e-02
1.163566112518310547e-02
-2.357803434133529663e-01
-2.908589318394660950e-03
-4.843654632568359375e-01
3.092997968196868896e-01
-1.266026943922042847e-01
1.082494556903839111e-01
-8.124625086784362793e-01
-4.414375722408294678e-01
-8.112969249486923218e-02
-2.614780142903327942e-02
7.963567227125167847e-02
-8.150492608547210693e-02
-5.661490187048912048e-02
-2.140805870294570923e-02
-1.248556822538375854e-01
-2.205454409122467041e-01
1.137334257364273071e-01
-6.143754720687866211e-02
6.306672841310501099e-02
-7.728022336959838867e-02
1.191534940153360367e-02
9.396649897098541260e-02
-9.763959795236587524e-02
1.236485410481691360e-02
1.438328474760055542e-01
5.650361627340316772e-02
-6.113772839307785034e-02
1.949879080057144165e-01
-8.919984102249145508e-04
2.937814593315124512e-01
1.625422388315200806e-01
-7.176149636507034302e-02
5.376089364290237427e-02
1.113850343972444534e-02
3.705429285764694214e-02
-2.888490557670593262e-01
-2.019708752632141113e-01
5.606281384825706482e-02
-2.460104040801525116e-02
8.984030783176422119e-02
-5.856574699282646179e-02
-1.675309985876083374e-01
-6.125026345252990723e-01
3.345537781715393066e-01
-1.583423614501953125e-01
3.688879078254103661e-03
8.880374580621719360e-02
-7.621850073337554932e-02
8.517903834581375122e-02
1.091447994112968445e-01
5.864053964614868164e-04
-3.128041326999664307e-02
-1.469819247722625732e-01
4.745241105556488037e-01
5.647554993629455566e-03
2.474864274263381958e-01
-9.200819581747055054e-02
5.284149646759033203e-01
-2.710314840078353882e-02
-1.235369741916656494e-01
-9.042865596711635590e-03
3.365597873926162720e-02
6.617053151130676270e-01
1.306658890098333359e-02
3.344098478555679321e-02
-5.344610214233398438e-01
-5.089385434985160828e-02
6.323525682091712952e-03
9.822341799736022949e-02
-7.875072956085205078e-02
1.182506699115037918e-02
1.963851787149906158e-02
-1.212883666157722473e-01
1.413221657276153564e-02
-4.002423584461212158e-01
4.568002820014953613e-01
-8.268107771873474121e-01
-2.282159589231014252e-02
2.049729973077774048e-02
-5.508654937148094177e-02
-5.739773437380790710e-02
-1.958481222391128540e-02
1.107204928994178772e-01
-8.964190259575843811e-03
7.143481075763702393e-02
2.873612195253372192e-02
6.793155521154403687e-02
-8.774495124816894531e-02
1.224569231271743774e-02
-3.533494193106889725e-03
1.728382485453039408e-04
-1.511684656143188477e-01
-4.983662068843841553e-02
-9.543790668249130249e-02
-1.192948967218399048e-02
1.675050258636474609e-01
3.352431952953338623e-01
6.103166937828063965e-02
1.526946295052766800e-02
4.249093681573867798e-02
-4.806065559387207031e-02
2.032394893467426300e-02
2.695702612400054932e-01
-6.255282554775476456e-03
-6.886688619852066040e-02
6.924093514680862427e-02
-1.309581875801086426e+00
-8.725152611732482910e-01
-5.798834562301635742e-02
3.640789687633514404e-01
7.293341308832168579e-02
2.391096204519271851e-02
2.087652683258056641e-03
2.365020662546157837e-02
4.622065462172031403e-03
1.819757819175720215e-01
2.823576033115386963e-01
8.461501449346542358e-02
-4.969899728894233704e-02
-7.483596354722976685e-02
-5.558227747678756714e-02
6.836188584566116333e-02
-3.594837337732315063e-02
2.865020558238029480e-02
4.337062686681747437e-02
8.025215566158294678e-02
7.280211895704269409e-02
-3.402262926101684570e-01
4.465774446725845337e-02
-6.775410175323486328e-01
-4.231619648635387421e-03
8.634878322482109070e-03
3.123549371957778931e-02
4.268389046192169189e-01
-5.315032228827476501e-02
1.078688353300094604e-02
1.542136967182159424e-01
-1.283105462789535522e-02
-8.527578786015510559e-03
2.199615091085433960e-01
-4.073316976428031921e-02
1.513811349868774414e-01
4.877147078514099121e-02
-5.309752188622951508e-03
1.233598124235868454e-02
-9.061448276042938232e-02
-5.366874113678932190e-02
-3.147320449352264404e-02
-6.861028075218200684e-02
-6.802450120449066162e-02
8.211142569780349731e-02
-4.554517194628715515e-02
2.845465838909149170e-01
3.285196125507354736e-01
2.685189247131347656e-04
2.896577715873718262e-01
4.561707377433776855e-03
-3.513911664485931396e-01
4.550471901893615723e-03
6.094406172633171082e-02
1.412340719252824783e-02
1.518173515796661377e-02
1.288604140281677246e-01
-1.392566263675689697e-01
2.105235122144222260e-02
4.906492829322814941e-01
-1.288821697235107422e-01
-4.917789623141288757e-02
1.491649355739355087e-02
2.672903239727020264e-02
6.567718088626861572e-02
-1.891363784670829773e-02
-5.938986316323280334e-02
6.920463591814041138e-02
3.835043311119079590e-01
-2.294811159372329712e-01
5.405796170234680176e-01
7.296936213970184326e-02
-6.089397892355918884e-02
5.736654400825500488e-01
-1.388714183121919632e-02
-7.992814481258392334e-02
3.000064194202423096e-02
4.801804572343826294e-02
1.503195893019437790e-02
7.183291763067245483e-02
7.116273045539855957e-03
-3.127578645944595337e-02
4.225403815507888794e-02
8.526515960693359375e-02
-8.938235789537429810e-02
9.199049323797225952e-02
-9.318486601114273071e-02
8.385517448186874390e-02
-9.309549629688262939e-02
-1.591780930757522583e-01
-1.354852807708084583e-03
-6.310959905385971069e-02
4.881733655929565430e-02
-6.829659640789031982e-02
3.317421674728393555e-01
6.956284493207931519e-02
-6.491593718528747559e-01
2.759245336055755615e-01
-1.057106405496597290e-01
-1.095427274703979492e-01
-1.188268065452575684e-01
-1.453603148460388184e+00
-3.798169270157814026e-02
3.378913998603820801e-01
-5.185482650995254517e-02
5.796616524457931519e-02
9.093759208917617798e-02
1.154974102973937988e-03
7.323227822780609131e-02
-6.944521330296993256e-03
6.979767680168151855e-01
-5.365313217043876648e-02
4.720017313957214355e-03
-1.147669777274131775e-01
-1.011599553748965263e-03
-1.995714381337165833e-02
9.165301173925399780e-02
9.194678068161010742e-02
1.041219905018806458e-01
1.825394667685031891e-02
-2.830916941165924072e-01
2.198527008295059204e-01
2.809423953294754028e-02
-6.446017622947692871e-01
5.422711744904518127e-02
8.854171633720397949e-02
-7.455320656299591064e-02
1.726308465003967285e-02
-6.013151630759239197e-02
-2.240019664168357849e-02
1.280603408813476562e-01
-1.472950577735900879e-01
-2.769236685708165169e-03
-1.576247215270996094e-01
5.793730169534683228e-02
-1.951081454753875732e-01
-1.071862459182739258e+00
2.718755044043064117e-02
-6.744596362113952637e-02
-1.350217610597610474e-01
5.540747568011283875e-02
-5.735513195395469666e-02
-9.659095108509063721e-02
-5.912790820002555847e-02
-6.838811933994293213e-02
8.138537406921386719e-03
3.922936916351318359e-01
3.221269845962524414e-01
5.850159376859664917e-02
-4.730563238263130188e-02
9.268521517515182495e-02
-5.819044709205627441e-01
-3.629547357559204102e-02
1.228283345699310303e-01
4.153257235884666443e-03
-7.839168608188629150e-02
2.492779344320297241e-01
6.477727741003036499e-02
-7.263664901256561279e-02
3.345556855201721191e-01
-1.060949340462684631e-01
2.627401053905487061e-01
4.729986563324928284e-02
1.233590170741081238e-01
-1.487893015146255493e-01
-4.284001886844635010e-02
-3.005363605916500092e-02
1.215012371540069580e-02
-7.540071606636047363e-01
-7.262951135635375977e-01
4.154583439230918884e-02
-8.065020292997360229e-02
6.596165150403976440e-02
-6.657245755195617676e-01
5.133943632245063782e-03
3.073915094137191772e-02
1.827714405953884125e-02
4.439968615770339966e-02
-2.957480847835540771e-01
-8.332552015781402588e-02
8.248350769281387329e-02
2.287307083606719971e-01
-8.412435650825500488e-03
6.105682626366615295e-02
-7.931289821863174438e-02
1.692976206541061401e-01
2.238123118877410889e-02
-3.962006792426109314e-02
2.779433876276016235e-02
8.511959016323089600e-02
3.087112009525299072e-01
-1.356867514550685883e-02
-5.047644302248954773e-02
-9.377064555883407593e-02
-8.949777111411094666e-03
8.411257714033126831e-02
-1.054403543472290039e+00
-9.412654638290405273e-01
2.166405916213989258e-01
-2.740249633789062500e-01
-4.623115062713623047e-01
4.924871325492858887e-01
3.632362931966781616e-02
-4.705901443958282471e-01
1.203308999538421631e-02
9.856540709733963013e-02
-5.137832090258598328e-02
-5.474313721060752869e-02
-4.889025911688804626e-02
8.488453924655914307e-02
2.636626958847045898e-01
4.959917813539505005e-02
5.797342211008071899e-02
4.356668144464492798e-02
6.972502917051315308e-02
9.961224347352981567e-02
-4.678132757544517517e-02
-1.000289842486381531e-01
-7.828191667795181274e-02
-1.892516016960144043e-01
4.394184947013854980e-01
-2.300300896167755127e-01
6.643868237733840942e-02
-3.513333946466445923e-02
2.575431466102600098e-01
-1.177357695996761322e-02
7.988198846578598022e-02
7.875384092330932617e-01
6.394667178392410278e-02
1.364821791648864746e-01
2.126371264457702637e-01
2.224711328744888306e-01
6.013736873865127563e-02
-7.160504460334777832e-01
6.439007818698883057e-03
7.034253329038619995e-02
-6.800529956817626953e-01
3.828945159912109375e-01
8.509494364261627197e-02
-9.116540104150772095e-02
7.553218305110931396e-02
-1.445288956165313721e-02
-1.755889505147933960e-02
8.328711614012718201e-03
-7.708223164081573486e-02
2.156943082809448242e-04
-3.036599159240722656e-01
-3.534048497676849365e-01
-5.171994119882583618e-02
