1.412128508090972900e-01
-1.518317162990570068e-01
-7.646806240081787109e-01
-2.838168442249298096e-01
1.074306666851043701e-01
1.402242574840784073e-02
2.031873613595962524e-01
-9.509152173995971680e-02
6.020165607333183289e-02
2.412874698638916016e-01
-7.403186708688735962e-02
1.723718494176864624e-01
6.500167399644851685e-02
-8.396744728088378906e-03
-3.097663633525371552e-02
-3.584893187507987022e-03
-2.386519312858581543e-02
3.584247231483459473e-01
3.513097167015075684e-01
6.508606020361185074e-03
2.666485309600830078e-01
-1.238785311579704285e-02
-2.996797263622283936e-01
-2.327391356229782104e-01
-8.825725317001342773e-02
-2.766727469861507416e-02
4.159232228994369507e-02
-1.708979308605194092e-01
-9.835834056138992310e-02
-2.879894077777862549e-01
-2.927125059068202972e-02
-5.135517939925193787e-02
2.943826615810394287e-01
1.041373834013938904e-01
8.292729035019874573e-03
1.453776285052299500e-02
-3.650652617216110229e-02
-7.654797285795211792e-02
3.112308494746685028e-02
-1.163007318973541260e-01
7.372809946537017822e-02
-1.188315600156784058e-01
-4.036992788314819336e-02
8.409993350505828857e-02
1.182896196842193604e-01
4.862003028392791748e-02
3.321686387062072754e-02
1.311320066452026367e-01
1.220083236694335938e-01
5.613429844379425049e-02
-5.412459373474121094e-03
-1.061476320028305054e-01
2.496421337127685547e-03
2.679724991321563721e-02
7.825075089931488037e-02
-1.028420254588127136e-01
-5.270771682262420654e-02
9.492275118827819824e-02
-2.656240761280059814e-02
-9.650625288486480713e-02
-1.497631072998046875e-01
7.268646359443664551e-02
-8.546038717031478882e-02
-1.004340201616287231e-01
-2.182398736476898193e-02
5.432635545730590820e-03
-1.214777380228042603e-01
5.767963826656341553e-02
3.772619366645812988e-02
8.755700290203094482e-02
8.294768631458282471e-02
1.332360804080963135e-01
1.384415030479431152e-01
-1.496104896068572998e-01
-1.304921209812164307e-01
-1.415166258811950684e-01
-7.972070574760437012e-02
4.037666320800781250e-02
1.547055989503860474e-01
1.811445341445505619e-03
-2.331803441047668457e-01
2.461019158363342285e-01
-1.222093775868415833e-01
-4.802802205085754395e-02
-1.164754629135131836e-01
-3.236561417579650879e-01
3.125602304935455322e-01
-5.597211122512817383e-01
6.256009452044963837e-03
-8.977671153843402863e-03
-3.124431669712066650e-01
-4.821615666151046753e-02
-7.661550492048263550e-02
3.292247653007507324e-02
-1.866831481456756592e-01
1.208087652921676636e-01
-5.480771064758300781e-01
1.252543777227401733e-01
4.967513382434844971e-01
6.080478057265281677e-02
-3.986830711364746094e-01
1.611255407333374023e-01
3.696494549512863159e-02
4.018158465623855591e-02
-1.156429126858711243e-01
-1.539395302534103394e-01
-2.557833194732666016e-01
-1.498313844203948975e-01
-3.355455994606018066e-01
2.713094353675842285e-01
-8.352372795343399048e-02
4.640347361564636230e-01
-1.165238097310066223e-01
3.739038407802581787e-01
5.273615121841430664e-01
-1.934648156166076660e-01
1.242168806493282318e-02
-7.404943555593490601e-02
4.223667085170745850e-02
7.069537043571472168e-02
1.568767428398132324e-01
-1.541771143674850464e-01
2.171155810356140137e-02
1.064692437648773193e-01
7.812197506427764893e-02
1.287415325641632080e-01
-8.475662767887115479e-02
-1.294708102941513062e-01
-1.356084346771240234e-01
8.930724859237670898e-02
1.031749248504638672e-01
-1.481270492076873779e-01
7.081153988838195801e-02
-1.559793502092361450e-01
-1.910540461540222168e-02
-7.557130604982376099e-02
-5.737366527318954468e-02
6.471921503543853760e-02
-1.233983933925628662e-01
8.916586637496948242e-02
5.723433196544647217e-02
1.544772982597351074e-01
-1.924106478691101074e-02
9.447294473648071289e-02
-6.350554525852203369e-02
-8.670423179864883423e-02
1.003952324390411377e-01
-1.534080654382705688e-01
-1.239047348499298096e-01
1.090008020401000977e-01
5.588437616825103760e-02
-1.045850217342376709e-01
-3.290002048015594482e-02
-8.953338116407394409e-02
8.197046816349029541e-02
-3.988717496395111084e-02
-2.415328286588191986e-02
-1.085626706480979919e-01
6.074806302785873413e-02
-1.073829904198646545e-01
1.212681010365486145e-01
1.461544185876846313e-01
-5.947904661297798157e-02
-2.665859647095203400e-02
-1.703274846076965332e-01
-1.095997169613838196e-02
2.864822149276733398e-01
1.705752164125442505e-01
-7.694945484399795532e-02
-5.516218394041061401e-02
-1.896429657936096191e-01
2.870255894958972931e-02
2.131140530109405518e-01
-1.880613416433334351e-01
-6.853649765253067017e-02
5.125067383050918579e-02
2.686842903494834900e-02
-3.932663798332214355e-02
3.130161389708518982e-02
2.717011272907257080e-01
2.633752226829528809e-01
-2.131147831678390503e-01
2.175743319094181061e-02
7.605405151844024658e-02
-1.200546398758888245e-01
1.417144089937210083e-01
-3.015577495098114014e-01
-5.292363092303276062e-02
-5.045523121953010559e-02
-1.883112639188766479e-01
-3.932611271739006042e-02
-2.578164935111999512e-01
-5.132551491260528564e-02
4.043538868427276611e-02
1.037130597978830338e-03
7.441724184900522232e-03
1.043147891759872437e-01
3.009367287158966064e-01
-7.048800587654113770e-02
5.397222936153411865e-02
7.924510538578033447e-02
1.283745616674423218e-01
7.232379913330078125e-02
1.437657177448272705e-01
-2.284561656415462494e-02
1.155169680714607239e-02
2.017289996147155762e-01
1.756315305829048157e-02
5.877509340643882751e-02
-1.202360764145851135e-01
-1.700779497623443604e-01
-7.517633587121963501e-02
-9.786543995141983032e-02
8.640045672655105591e-02
-1.817608326673507690e-01
-1.028678640723228455e-01
1.549301575869321823e-02
6.867948919534683228e-02
-7.687922567129135132e-02
-1.850998997688293457e-01
-1.420943439006805420e-01
-1.479285508394241333e-01
1.772021800279617310e-01
-2.874464262276887894e-03
-9.040771424770355225e-02
-1.097709983587265015e-01
2.399875596165657043e-02
2.067605555057525635e-01
-1.702211350202560425e-01
8.068901300430297852e-02
1.380901932716369629e-01
-2.247347086668014526e-01
-8.616116829216480255e-03
3.852946311235427856e-02
-6.272219866514205933e-02
-8.959278464317321777e-03
1.132388412952423096e-01
2.142354846000671387e-03
-3.487130999565124512e-02
-1.069136187434196472e-01
-3.122211992740631104e-02
-7.460281997919082642e-02
1.499412059783935547e-01
-4.913204908370971680e-02
-4.240450263023376465e-02
-1.529310196638107300e-01
-7.496114820241928101e-02
8.189973235130310059e-02
-1.631610095500946045e-02
6.421847641468048096e-02
6.415334343910217285e-02
-1.340534687042236328e-01
-1.688356697559356689e-02
3.933762013912200928e-02
1.300092041492462158e-01
-5.394432693719863892e-02
-3.301775455474853516e-02
1.083193123340606689e-01
-5.161574482917785645e-02
-8.044458925724029541e-02
-9.634494781494140625e-03
7.432655990123748779e-02
-7.353357970714569092e-02
6.067100167274475098e-02
-2.047322690486907959e-02
-6.092132627964019775e-02
1.194120943546295166e-01
-4.989039152860641479e-02
-1.058612912893295288e-01
-1.399540305137634277e-01
-5.547652393579483032e-02
-8.604990690946578979e-02
9.376847743988037109e-02
1.160133779048919678e-01
4.131573811173439026e-02
3.836072748526930809e-03
-1.276600956916809082e-01
1.938918977975845337e-01
-6.245813146233558655e-02
-8.183076977729797363e-02
2.978172153234481812e-02
-1.445831507444381714e-01
2.752403728663921356e-02
1.785104572772979736e-01
-1.888727694749832153e-01
1.101138293743133545e-01
-6.541869789361953735e-02
1.863907277584075928e-01
-1.282714158296585083e-01
-1.159158255904912949e-02
3.045325279235839844e-01
-3.063493967056274414e-01
2.517488896846771240e-01
6.196482107043266296e-02
-2.399369478225708008e-01
2.902525365352630615e-01
1.648974721319973469e-03
-2.996014244854450226e-02
-5.840843170881271362e-02
-1.268359273672103882e-01
-8.737973123788833618e-02
7.914829999208450317e-02
-5.438144803047180176e-01
-2.140782922506332397e-01
3.762714862823486328e-01
2.911418676376342773e-01
-2.738155722618103027e-01
3.206416070461273193e-01
2.133771479129791260e-01
-1.793669015169143677e-01
-1.802083849906921387e-01
3.997655212879180908e-02
1.089008003473281860e-01
-2.192650139331817627e-01
-1.567657291889190674e-01
-2.369813174009323120e-01
-2.661474347114562988e-01
3.700968995690345764e-02
-4.665815085172653198e-02
1.152659952640533447e-01
-6.045874953269958496e-02
1.686536967754364014e-01
1.272926479578018188e-01
-6.244912371039390564e-02
-2.633406221866607666e-01
-3.757069259881973267e-02
-1.981432177126407623e-02
-9.441810660064220428e-03
-1.416428536176681519e-01
3.997766971588134766e-02
1.950060278177261353e-01
1.570287495851516724e-01
1.867857575416564941e-01
-8.244470506906509399e-02
2.371496111154556274e-01
-1.896933317184448242e-01
-2.690256573259830475e-02
5.552229657769203186e-02
-2.518844045698642731e-02
-1.264296472072601318e-01
1.898817867040634155e-01
2.710817456245422363e-01
1.920256167650222778e-01
-1.327479332685470581e-01
-8.278812468051910400e-02
1.082268506288528442e-01
2.150458469986915588e-02
1.882797339931130409e-03
1.778479218482971191e-01
-1.792494058609008789e-01
9.136858396232128143e-03
9.935361891984939575e-02
2.748726308345794678e-01
-1.800335198640823364e-01
3.859937787055969238e-01
6.951017677783966064e-02
-1.441333293914794922e-01
1.576396077871322632e-01
1.051182001829147339e-01
-6.507546175271272659e-03
-2.321739941835403442e-01
2.374100498855113983e-02
-2.505031228065490723e-01
-1.437228173017501831e-01
-1.522320508956909180e-01
1.397895365953445435e-01
1.041216999292373657e-01
1.187792047858238220e-01
-2.690333425998687744e-01
-9.032308310270309448e-02
-2.909794449806213379e-01
7.637112867087125778e-03
-1.386966183781623840e-02
-1.025067046284675598e-01
9.184594452381134033e-02
1.407025754451751709e-01
7.921194285154342651e-02
-1.160916164517402649e-01
-4.515752196311950684e-02
1.614088378846645355e-02
3.892728313803672791e-02
-2.604978382587432861e-01
3.826592490077018738e-02
5.905970558524131775e-02
1.466517448425292969e-01
-9.601709246635437012e-02
2.125646620988845825e-01
2.418307214975357056e-02
4.647420253604650497e-03
-3.239248692989349365e-02
3.370753722265362740e-03
-6.975733637809753418e-01
-3.612285554409027100e-01
6.014785766601562500e-01
-3.868505656719207764e-01
2.348267585039138794e-01
1.219749078154563904e-02
1.374966278672218323e-02
-3.702080845832824707e-01
-2.138363718986511230e-01
1.743673980236053467e-01
-1.467705518007278442e-01
-2.051686197519302368e-01
-1.095434725284576416e-01
-5.241853184998035431e-03
1.898886561393737793e-01
-9.049554169178009033e-02
-6.089808419346809387e-02
4.284295141696929932e-01
-1.279054675251245499e-02
-8.716340363025665283e-02
-1.361570507287979126e-01
-2.841035127639770508e-01
9.349671006202697754e-02
-1.732547953724861145e-02
9.487859159708023071e-02
-1.565612852573394775e-01
-7.193326018750667572e-03
5.804873630404472351e-02
-3.587059676647186279e-01
3.685189783573150635e-02
4.869587421417236328e-01
2.422056645154953003e-01
3.839716911315917969e-01
-9.962613135576248169e-02
-2.371504008769989014e-01
-1.322346627712249756e-01
-1.339754015207290649e-01
-3.433425724506378174e-02
8.382396399974822998e-02
-2.704238891601562500e-01
-1.493330299854278564e-01
-2.457618247717618942e-03
-1.921343952417373657e-01
-1.899342685937881470e-01
-2.332299053668975830e-01
9.481482952833175659e-02
-1.516689062118530273e-01
2.033165544271469116e-01
-1.608547195792198181e-02
-2.696867100894451141e-02
-9.220626205205917358e-02
2.690526098012924194e-02
-3.338032960891723633e-02
5.514124035835266113e-02
-1.887756958603858948e-02
-2.190738469362258911e-01
-1.754934191703796387e-01
-1.133710443973541260e-01
-1.491943001747131348e-01
1.225170493125915527e-01
-1.723507046699523926e-01
-1.002661138772964478e-01
-7.079476863145828247e-02
-9.515382349491119385e-02
1.319193691015243530e-01
1.582086384296417236e-01
-8.839788287878036499e-02
-1.212757453322410583e-01
-3.694090247154235840e-02
1.434127688407897949e-01
-9.228102862834930420e-02
5.893455818295478821e-02
-4.650924727320671082e-02
2.334812469780445099e-02
-4.232598468661308289e-02
-2.386920154094696045e-02
8.009989559650421143e-02
-2.119435966014862061e-01
3.227242529392242432e-01
-9.690667688846588135e-02
-3.860300183296203613e-01
-2.163392007350921631e-01
-1.735273748636245728e-02
1.444481313228607178e-01
2.474185079336166382e-01
-1.290154010057449341e-01
-1.800785213708877563e-02
-2.059912234544754028e-01
-2.251550555229187012e-02
-1.746008843183517456e-01
-1.039605587720870972e-01
-4.971857741475105286e-02
-4.316722601652145386e-02
-9.838403016328811646e-02
2.425984293222427368e-01
1.328788101673126221e-01
2.708083763718605042e-02
2.210862040519714355e-01
1.331630349159240723e-01
-2.152125351130962372e-02
-2.745035886764526367e-01
-8.464832603931427002e-02
-1.385179460048675537e-01
-2.134995302185416222e-03
1.571885794401168823e-01
2.039939314126968384e-01
-2.602933347225189209e-01
3.214966654777526855e-01
-9.826169908046722412e-02
2.150350809097290039e-01
9.471043944358825684e-02
2.652953565120697021e-02
3.338935673236846924e-01
-9.825325105339288712e-04
4.088472947478294373e-02
1.049492210149765015e-01
-2.604508027434349060e-02
7.737037539482116699e-02
-2.145547233521938324e-02
7.492021657526493073e-03
9.012129902839660645e-02
-4.740107432007789612e-02
5.480634421110153198e-02
5.682472884654998779e-02
1.409170627593994141e-01
-1.208913102746009827e-01
-9.918858855962753296e-02
-6.180877797305583954e-03
-1.258887350559234619e-01
-1.140654161572456360e-01
-2.703334391117095947e-02
-3.436269238591194153e-02
6.947991997003555298e-02
5.126461014151573181e-02
5.686515942215919495e-02
1.043003275990486145e-01
1.306251287460327148e-01
1.344533264636993408e-01
-1.643530130386352539e-01
9.844223409891128540e-02
-1.115105003118515015e-01
1.026924815960228443e-03
-1.746902167797088623e-01
-1.130408346652984619e-01
-7.452813535928726196e-02
1.147725582122802734e-01
-6.955137103796005249e-02
-1.165238842368125916e-01
-1.300402283668518066e-01
2.167044393718242645e-02
-1.440959274768829346e-01
-1.225825473666191101e-01
-1.066749095916748047e-01
-1.071784645318984985e-01
-6.835919618606567383e-02
-1.458009779453277588e-01
1.310720294713973999e-01
-9.517730027437210083e-02
9.909328073263168335e-02
-1.191385090351104736e-03
1.616058312356472015e-02
3.852930665016174316e-02
-6.209119036793708801e-02
1.376721858978271484e-01
3.025440685451030731e-02
1.437331736087799072e-01
3.153714537620544434e-02
9.395700693130493164e-02
-9.416341781616210938e-02
1.112546771764755249e-01
2.197954207658767700e-01
2.282979190349578857e-01
-4.118143022060394287e-02
-1.202645525336265564e-01
5.868436023592948914e-02
4.224037006497383118e-02
-6.500587798655033112e-03
9.097314625978469849e-02
-8.792020380496978760e-02
3.099532723426818848e-01
-1.316579524427652359e-02
8.848957717418670654e-02
3.140980750322341919e-02
1.472539640963077545e-02
-3.394885733723640442e-02
9.637978672981262207e-02
-2.449201606214046478e-02
-2.905055880546569824e-01
-1.769999265670776367e-01
-6.343594938516616821e-02
-1.178030669689178467e-01
-7.288609445095062256e-02
2.499050199985504150e-01
1.791212409734725952e-01
3.511900780722498894e-03
1.433500498533248901e-01
3.345167636871337891e-01
-1.162701025605201721e-01
-1.932876259088516235e-01
8.950674533843994141e-02
-6.228778511285781860e-02
5.339901521801948547e-02
2.191957086324691772e-01
6.453767418861389160e-02
-1.906745582818984985e-01
8.098715916275978088e-03
1.853252649307250977e-01
3.691929578781127930e-02
-2.655459940433502197e-01
-9.189665317535400391e-02
-1.319686125498265028e-04
2.966401875019073486e-01
-1.948099136352539062e-01
5.498851835727691650e-02
-2.584694512188434601e-02
-9.047626703977584839e-02
-3.954453766345977783e-01
4.255916923284530640e-02
-2.259944528341293335e-01
1.368958130478858948e-02
8.140712231397628784e-02
4.344841092824935913e-02
-1.945153325796127319e-01
-3.007410764694213867e-01
3.606547415256500244e-02
2.174186334013938904e-02
3.271904215216636658e-02
-2.407649531960487366e-02
-3.293830528855323792e-02
-1.503241956233978271e-01
8.451039344072341919e-02
1.100833341479301453e-01
-3.521559759974479675e-02
2.097456250339746475e-03
-3.942682221531867981e-02
4.737119376659393311e-02
-9.100390970706939697e-02
9.397881478071212769e-02
1.206345856189727783e-01
-1.486687734723091125e-02
-1.824154984205961227e-03
-4.274374619126319885e-02
-1.632569432258605957e-01
-1.560984253883361816e-01
4.528330173343420029e-03
1.333775520324707031e-01
-3.483602404594421387e-02
8.444702625274658203e-02
4.882420226931571960e-02
-8.485856465995311737e-03
-1.102325096726417542e-01
-1.653306335210800171e-01
-8.969393372535705566e-02
-1.501117050647735596e-01
-7.431710604578256607e-03
-5.876873806118965149e-02
-4.050140827894210815e-02
-1.320073306560516357e-01
9.927461296319961548e-02
-5.723006650805473328e-02
2.032429352402687073e-02
-4.137293249368667603e-02
-1.062800437211990356e-01
-1.183479651808738708e-02
-8.122321963310241699e-02
-3.111387044191360474e-02
5.375757813453674316e-02
-5.656372010707855225e-02
1.047029197216033936e-01
-2.652955055236816406e-02
2.321921847760677338e-02
2.326021157205104828e-02
-1.381379319354891777e-03
2.055765241384506226e-01
2.548905089497566223e-02
-2.369485348463058472e-01
3.863043785095214844e-01
1.319885551929473877e-01
1.863130331039428711e-01
-1.701986193656921387e-01
9.602500498294830322e-02
-3.709381446242332458e-03
2.248779404908418655e-03
-2.350780554115772247e-02
1.005063429474830627e-01
1.271051913499832153e-01
6.986773759126663208e-02
-4.664634354412555695e-03
1.874893158674240112e-01
-1.392839662730693817e-02
2.521733045578002930e-01
9.686746448278427124e-02
-1.431055665016174316e-01
1.531117260456085205e-01
1.281830761581659317e-02
1.187989711761474609e-01
2.270320206880569458e-01
-1.809971183538436890e-01
2.074816972017288208e-01
4.649274796247482300e-02
5.796198919415473938e-02
-1.353233903646469116e-01
2.078838348388671875e-01
-2.699586795642971992e-03
-1.535573005676269531e-01
2.403548359870910645e-02
-1.217394843697547913e-01
-3.395234942436218262e-01
1.268213428556919098e-02
-4.510703980922698975e-01
-4.556309878826141357e-01
-1.442826837301254272e-01
6.781242787837982178e-02
4.712162911891937256e-02
-1.600408703088760376e-01
1.457892656326293945e-01
8.006311953067779541e-02
-1.590777039527893066e-01
5.402185022830963135e-02
8.953347802162170410e-02
-2.205502986907958984e-02
-1.579131186008453369e-01
1.518926918506622314e-01
-1.173151880502700806e-01
-5.871285498142242432e-02
-6.904160976409912109e-02
1.279461383819580078e-01
-2.405034005641937256e-02
-1.232784166932106018e-01
4.245361685752868652e-02
-1.004629582166671753e-01
-1.453335732221603394e-01
-1.296578794717788696e-01
3.720641136169433594e-03
1.555651426315307617e-01
1.502872109413146973e-01
-1.552283763885498047e-03
-1.231837570667266846e-01
-1.071943044662475586e-01
1.427207589149475098e-01
3.396461904048919678e-02
-3.910788893699645996e-02
1.052668988704681396e-01
-1.535745412111282349e-01
7.919666171073913574e-02
-1.277196854352951050e-01
1.177065372467041016e-01
-5.320444703102111816e-02
-1.219651475548744202e-01
6.334692239761352539e-02
-1.590135134756565094e-02
5.580007433891296387e-01
-1.052501052618026733e-01
-6.225156188011169434e-01
-1.066831313073635101e-02
-2.442580163478851318e-01
1.398819964379072189e-02
2.638957798480987549e-01
-2.101933956146240234e-01
-1.825431883335113525e-01
2.535238862037658691e-01
-2.760946750640869141e-01
-3.083323873579502106e-02
-1.795607060194015503e-02
-1.824837476015090942e-01
-8.556155860424041748e-02
3.871820271015167236e-01
3.281227946281433105e-01
4.767056088894605637e-03
1.176070421934127808e-01
1.498679071664810181e-01
2.167839258909225464e-01
2.271778881549835205e-02
2.603720128536224365e-01
1.998866796493530273e-01
4.697079956531524658e-02
-8.489795774221420288e-02
-1.739955693483352661e-01
-6.696601398289203644e-03
2.802923321723937988e-01
2.540098428726196289e-01
-6.240963935852050781e-02
-1.741031743586063385e-02
1.110452134162187576e-02
1.726941615343093872e-01
3.865447044372558594e-01
5.029938369989395142e-02
2.659778296947479248e-02
-2.825571596622467041e-02
3.055160678923130035e-02
-1.234654933214187622e-01
-4.502875804901123047e-01
-6.606731563806533813e-02
3.046125173568725586e-01
9.549371153116226196e-02
-1.722696125507354736e-01
1.182254627346992493e-01
4.228591322898864746e-01
4.012836143374443054e-02
3.415369093418121338e-01
3.635108470916748047e-01
1.895896345376968384e-02
-6.421638280153274536e-02
-2.879822626709938049e-02
1.842356622219085693e-01
3.133974969387054443e-01
4.488025605678558350e-01
-8.627127856016159058e-03
1.218356750905513763e-02
-6.762062013149261475e-02
-3.324976265430450439e-01
-8.990205079317092896e-02
-2.057215869426727295e-01
-8.258494734764099121e-02
1.635453402996063232e-01
-4.182745236903429031e-03
-1.417820304632186890e-01
-1.500911861658096313e-01
-9.797477722167968750e-02
3.396772593259811401e-02
-7.294709235429763794e-02
-2.397466003894805908e-01
-1.645691096782684326e-01
1.554079800844192505e-01
-1.329649984836578369e-01
-1.937069892883300781e-01
-2.535432875156402588e-01
-1.268524974584579468e-01
6.515195220708847046e-02
3.931353688240051270e-01
-3.336497247219085693e-01
1.128632053732872009e-01
1.648667305707931519e-01
-2.368903011083602905e-01
1.805200874805450439e-01
-7.130657881498336792e-02
5.770645141601562500e-01
-1.075495406985282898e-01
2.480494379997253418e-01
-1.906069070100784302e-01
2.353106252849102020e-02
1.939854174852371216e-01
-4.823962692171335220e-03
2.561058290302753448e-02
3.067778050899505615e-01
6.285084784030914307e-02
-1.522189378738403320e-01
1.269292235374450684e-01
1.814040243625640869e-01
-5.073773488402366638e-02
-3.936034440994262695e-01
-1.743825823068618774e-01
-1.806170791387557983e-01
1.272242370760068297e-04
2.201107516884803772e-02
7.476706989109516144e-03
2.612645328044891357e-01
2.566803395748138428e-01
-5.880636572837829590e-01
5.411880463361740112e-02
-7.290781289339065552e-02
-1.762188822031021118e-01
-1.535584330558776855e-01
9.261837601661682129e-02
-3.424027562141418457e-01
5.139743164181709290e-02
-2.864458598196506500e-02
-1.339727342128753662e-01
1.672092452645301819e-02
-1.489304453134536743e-01
-1.844961754977703094e-02
-1.113087777048349380e-02
1.492783874273300171e-01
-1.613249480724334717e-01
-1.170405820012092590e-01
-9.995392709970474243e-02
1.442928314208984375e-01
9.888646751642227173e-02
8.276668936014175415e-02
7.855153083801269531e-02
-2.082748711109161377e-02
3.798007220029830933e-02
-7.562001049518585205e-02
5.558151006698608398e-02
-3.589902445673942566e-02
5.137613415718078613e-02
4.701497405767440796e-02
1.090115010738372803e-01
-3.006512485444545746e-02
2.869645506143569946e-02
-2.950320951640605927e-02
9.872949123382568359e-02
1.436265259981155396e-01
-6.167555600404739380e-02
1.218525394797325134e-01
-2.219103276729583740e-02
-9.287393093109130859e-02
7.899628579616546631e-02
-8.816125243902206421e-02
1.505651772022247314e-01
-1.175645291805267334e-01
1.487077176570892334e-01
9.006819687783718109e-03
-1.384490877389907837e-01
-1.482783555984497070e-01
5.496010184288024902e-02
-1.311522424221038818e-01
7.730883359909057617e-02
1.516383290290832520e-01
9.409064054489135742e-02
9.303444623947143555e-02
-1.657059788703918457e-02
-7.595304399728775024e-02
7.817159593105316162e-02
9.262877702713012695e-02
1.232286989688873291e-01
1.557807624340057373e-01
1.073069870471954346e-01
9.548088908195495605e-02
1.232851445674896240e-01
1.478817164897918701e-01
4.548460245132446289e-02
5.474206805229187012e-02
-8.653848618268966675e-02
-1.489927768707275391e-01
-1.578131765127182007e-01
-5.460695922374725342e-02
-7.078155130147933960e-02
1.323962807655334473e-01
2.548828721046447754e-02
-1.365818083286285400e-01
-5.758441984653472900e-02
-5.962901562452316284e-02
-7.245970517396926880e-02
-1.357151418924331665e-01
-1.606091856956481934e-03
-2.342678606510162354e-02
1.506471633911132812e-02
6.250871717929840088e-02
3.812837600708007812e-02
-8.467695116996765137e-02
6.494411826133728027e-02
9.486079216003417969e-02
2.733650803565979004e-02
-1.085592210292816162e-01
1.087983921170234680e-01
-7.263555377721786499e-02
5.140701532363891602e-01
4.119769483804702759e-02
-2.990646362304687500e-01
-2.207662612199783325e-01
-2.120620012283325195e-01
-2.881456315517425537e-01
-2.105037420988082886e-01
-1.682847179472446442e-02
3.665681183338165283e-02
-1.591646969318389893e-01
-1.300678700208663940e-01
5.335083976387977600e-02
2.784794867038726807e-01
3.442584276199340820e-01
1.013500839471817017e-01
-1.778996288776397705e-01
-3.491091430187225342e-01
6.756730377674102783e-02
1.007067635655403137e-01
1.809406578540802002e-01
7.188011705875396729e-02
1.653942465782165527e-01
-5.666575953364372253e-02
-3.527708947658538818e-01
3.187758922576904297e-01
1.531673073768615723e-01
-4.662206768989562988e-01
-3.182087838649749756e-01
4.733593761920928955e-01
1.066554989665746689e-02
2.704914193600416183e-03
-1.222590655088424683e-01
1.257982999086380005e-01
-1.873135268688201904e-01
-5.221531391143798828e-01
5.552111938595771790e-02
2.600125670433044434e-01
-7.621949538588523865e-03
-4.336352460086345673e-03
2.447259724140167236e-01
9.545462578535079956e-02
-4.202360659837722778e-02
4.680718109011650085e-02
1.370646655559539795e-01
-1.559323724359273911e-02
-9.425500035285949707e-02
2.173897437751293182e-02
-4.159505292773246765e-02
1.245313063263893127e-01
-4.109714925289154053e-02
-6.941299885511398315e-02
3.787937015295028687e-02
1.773220300674438477e-01
1.799533329904079437e-02
7.160088419914245605e-02
7.742644101381301880e-02
-2.057319283485412598e-01
-5.851620435714721680e-02
-8.981158956885337830e-03
-8.405419439077377319e-02
-6.660718470811843872e-02
-2.085605263710021973e-01
-8.708424121141433716e-02
-1.362109333276748657e-01
1.905589997768402100e-01
4.247293993830680847e-02
9.168659150600433350e-02
2.422411367297172546e-02
2.012448757886886597e-01
6.833154708147048950e-02
-2.155647426843643188e-02
-6.858693435788154602e-03
1.265351623296737671e-01
-1.553423404693603516e-01
1.638419181108474731e-02
4.896879568696022034e-02
5.075942724943161011e-02
1.218875423073768616e-01
1.358517259359359741e-01
8.971203118562698364e-02
1.987703889608383179e-01
-9.430850297212600708e-02
-2.668677363544702530e-03
3.382944688200950623e-02
-4.515644162893295288e-02
-3.208357468247413635e-02
1.426709443330764771e-01
-1.648364365100860596e-01
-2.687363326549530029e-01
-1.326515525579452515e-01
1.570824533700942993e-01
-1.259281337261199951e-01
-1.561136543750762939e-01
-2.357825189828872681e-01
2.109599411487579346e-01
2.395224720239639282e-01
5.107570439577102661e-02
-6.384360790252685547e-02
1.251735985279083252e-01
1.516310423612594604e-01
5.220655351877212524e-02
2.564858496189117432e-01
-9.886681288480758667e-02
1.016638055443763733e-01
2.619250416755676270e-01
3.836215734481811523e-01
-2.845968119800090790e-02
-6.774380058050155640e-02
-3.493288159370422363e-01
7.686614990234375000e-02
1.102736890316009521e-01
-7.664186507463455200e-02
1.791877299547195435e-02
-5.902041215449571609e-03
-2.283342033624649048e-01
1.134490668773651123e-01
-9.906364232301712036e-02
-1.956571489572525024e-01
-1.251073181629180908e-01
4.435094073414802551e-02
1.822369694709777832e-01
2.063940465450286865e-01
5.228040367364883423e-02
-2.056280523538589478e-01
9.232294559478759766e-02
2.908139431383460760e-04
1.467133015394210815e-01
-6.739558279514312744e-02
1.090813148766756058e-02
4.431984573602676392e-02
-4.712209850549697876e-02
-2.966541647911071777e-01
1.463363170623779297e-01
-1.623287349939346313e-01
-1.051465049386024475e-01
-3.058617003262042999e-02
-1.407253146171569824e-01
7.636752724647521973e-02
1.443246304988861084e-01
-2.189017981290817261e-01
-1.108012497425079346e-01
7.410327345132827759e-02
3.795222938060760498e-02
-1.431317776441574097e-01
-5.147754549980163574e-01
-8.162693679332733154e-02
5.095880944281816483e-03
1.205654665827751160e-01
1.310536265373229980e-01
7.456021849066019058e-03
1.874316185712814331e-01
6.434444338083267212e-02
-6.992529332637786865e-02
-7.183261215686798096e-02
9.004109352827072144e-02
-7.916714251041412354e-02
-1.558113694190979004e-01
-2.712216973304748535e-01
-2.271698415279388428e-02
-1.575598865747451782e-02
-6.126765161752700806e-02
2.942495048046112061e-02
2.417012862861156464e-02
-1.255227625370025635e-01
-9.670013189315795898e-02
-3.547395393252372742e-02
-9.610797464847564697e-02
2.212998084723949432e-02
-2.663651108741760254e-02
1.194840520620346069e-01
2.563732266426086426e-01
-1.254394054412841797e-01
-1.735833138227462769e-01
1.481749769300222397e-02
-2.895014882087707520e-01
5.644089728593826294e-02
3.590822592377662659e-02
-3.255348652601242065e-02
2.519126534461975098e-01
-2.911495864391326904e-01
1.012064814567565918e-01
1.396003067493438721e-01
-9.774014353752136230e-02
-4.854021370410919189e-01
-2.629894614219665527e-01
-1.652711257338523865e-02
8.018539100885391235e-02
1.864967346191406250e-01
-4.085171036422252655e-03
-1.628787666559219360e-01
-2.665677340701222420e-03
1.084335967898368835e-01
-1.633734107017517090e-01
-1.327063441276550293e-01
-9.043549746274948120e-02
8.956101536750793457e-02
1.517730206251144409e-01
1.585603952407836914e-01
-1.952133029699325562e-01
1.163854822516441345e-02
1.455733478069305420e-01
-2.749354019761085510e-02
2.869696915149688721e-02
-2.394913583993911743e-01
-1.397755593061447144e-01
8.256149291992187500e-02
-8.267047256231307983e-02
-1.471728980541229248e-01
8.947618305683135986e-02
1.357829384505748749e-02
1.790488660335540771e-01
-7.189086824655532837e-02
-1.605520248413085938e-01
-4.205557405948638916e-01
5.007190629839897156e-03
1.210759580135345459e-02
-2.243889868259429932e-01
-1.343778669834136963e-01
3.417171910405158997e-02
1.311752200126647949e-01
1.570596992969512939e-01
-1.204379126429557800e-01
-3.082388043403625488e-01
-3.067675232887268066e-02
8.237133175134658813e-02
-2.442452758550643921e-01
4.187528491020202637e-01
3.680803775787353516e-01
-4.654880985617637634e-02
-2.930376827716827393e-01
4.643477499485015869e-02
1.328792423009872437e-01
-2.226427197456359863e-02
4.308865964412689209e-02
6.538550555706024170e-02
8.163471519947052002e-02
6.754752993583679199e-02
-1.369337290525436401e-01
-1.525157839059829712e-01
-1.299088746309280396e-01
-1.355674415826797485e-01
9.749773144721984863e-02
-1.546804010868072510e-01
1.002166867256164551e-01
-7.524506002664566040e-02
1.233284771442413330e-01
-1.331873983144760132e-01
-2.193230390548706055e-02
-7.391393929719924927e-02
-1.592724919319152832e-01
-1.392471343278884888e-01
-7.011642307043075562e-02
8.448871970176696777e-02
6.782746315002441406e-02
-1.166654378175735474e-01
1.293137967586517334e-01
-3.658176213502883911e-02
-6.898751109838485718e-02
-1.393159776926040649e-01
-1.446002572774887085e-01
-1.212048530578613281e-02
-1.133183538913726807e-01
-7.137047499418258667e-02
-8.241185545921325684e-02
-1.271583139896392822e-01
1.218920052051544189e-01
6.761896610260009766e-02
-1.360236108303070068e-02
2.570693194866180420e-02
6.666749715805053711e-03
1.667791604995727539e-02
-1.397300362586975098e-01
5.957008898258209229e-02
5.927547812461853027e-02
-1.541312187910079956e-01
-1.565592139959335327e-01
-9.043473005294799805e-02
-1.041338145732879639e-01
8.425036072731018066e-02
-6.471160799264907837e-02
-4.407525062561035156e-03
-7.392853498458862305e-03
-3.137753903865814209e-02
-2.898946404457092285e-03
7.203370332717895508e-02
-1.469681262969970703e-01
-2.818968892097473145e-02
-9.535337239503860474e-02
6.833429634571075439e-02
-1.021356061100959778e-01
1.154727637767791748e-01
1.391962468624114990e-01
1.849101483821868896e-02
9.039559960365295410e-02
1.018868982791900635e-01
-1.531776487827301025e-01
6.195013225078582764e-02
6.065803766250610352e-02
-1.268488764762878418e-01
1.030364334583282471e-01
-1.096048504114151001e-01
-6.796278804540634155e-02
9.966063499450683594e-02
-1.563349366188049316e-02
-8.236239850521087646e-02
2.372787892818450928e-02
4.366052150726318359e-02
1.905208826065063477e-02
1.030694246292114258e-01
3.056983649730682373e-02
-1.450612396001815796e-01
1.135840043425559998e-01
6.435182411223649979e-03
-2.460245341062545776e-01
1.792132854461669922e-02
-6.242059543728828430e-02
-1.456923186779022217e-01
-3.329028189182281494e-01
2.933554165065288544e-02
1.887026578187942505e-01
-7.856030017137527466e-02
8.948023617267608643e-02
-1.173575296998023987e-01
-7.294399291276931763e-02
-1.672385782003402710e-01
-4.356625955551862717e-03
-6.343581527471542358e-02
-4.294342943467199802e-06
-8.888321369886398315e-02
-1.249431371688842773e-01
8.762701600790023804e-02
-7.084998488426208496e-02
-3.232258604839444160e-03
4.568203538656234741e-02
-9.170438349246978760e-02
-1.571480184793472290e-01
4.608520306646823883e-03
1.668298244476318359e-01
1.757831424474716187e-01
2.210889756679534912e-01
2.828521095216274261e-02
1.082429215312004089e-01
2.892152070999145508e-01
1.711267232894897461e-01
1.111533213406801224e-02
-5.310498178005218506e-02
1.402285397052764893e-01
1.150230094790458679e-01
8.005148917436599731e-02
-1.157918274402618408e-01
-9.991732239723205566e-02
-5.608591437339782715e-02
-1.492744535207748413e-01
5.058763921260833740e-02
1.407112181186676025e-01
2.993746101856231689e-02
8.791922032833099365e-02
6.952597200870513916e-02
8.083820343017578125e-03
-1.414026468992233276e-01
-2.670307457447052002e-02
5.727800726890563965e-02
5.658185482025146484e-02
-2.784432470798492432e-02
6.696505844593048096e-02
-2.309383451938629150e-02
-1.069048792123794556e-01
1.555337309837341309e-01
-6.384813040494918823e-02
-8.949067443609237671e-02
5.446493625640869141e-02
-8.895859122276306152e-03
9.222173690795898438e-02
1.960894465446472168e-02
1.031881570816040039e-02
-1.252284348011016846e-01
-2.219110727310180664e-03
2.956715226173400879e-02
5.966655910015106201e-02
-1.487548500299453735e-01
7.754376530647277832e-02
1.131735146045684814e-01
-6.450130790472030640e-02
2.867221832275390625e-02
1.569461822509765625e-01
1.119740009307861328e-01
9.808072447776794434e-02
-1.181454882025718689e-01
-5.131726153194904327e-03
3.014325723052024841e-02
-1.130621880292892456e-01
9.292348474264144897e-02
1.817951723933219910e-02
1.112628132104873657e-01
7.162564992904663086e-02
-1.247916463762521744e-02
-7.083702832460403442e-02
-7.809307426214218140e-02
1.011889576911926270e-01
-1.438060123473405838e-02
1.258075088262557983e-01
1.518881320953369141e-01
1.325079202651977539e-01
3.721024096012115479e-02
4.210560768842697144e-02
-3.370273113250732422e-02
2.966684289276599884e-03
-2.787996549159288406e-03
-1.209374666213989258e-01
-6.495607644319534302e-02
1.436223089694976807e-01
5.614991113543510437e-02
-1.605503857135772705e-01
-3.613768890500068665e-02
3.035791404545307159e-02
8.415614813566207886e-02
-1.000830158591270447e-01
4.489983897656202316e-03
-6.973500549793243408e-02
5.833149701356887817e-02
9.052671492099761963e-02
8.550368994474411011e-02
-6.670242547988891602e-02
5.087441951036453247e-02
-8.272074162960052490e-02
-6.294704228639602661e-02
2.143361791968345642e-02
1.164273172616958618e-01
-2.361574470996856689e-01
9.363710880279541016e-02
2.106219828128814697e-01
-1.470310240983963013e-01
-7.916838675737380981e-02
2.356517687439918518e-02
6.796361505985260010e-02
7.120026648044586182e-02
-5.911822989583015442e-02
4.801654815673828125e-02
-8.350510150194168091e-02
-1.721745729446411133e-01
-2.957246266305446625e-02
1.796595305204391479e-01
1.377740949392318726e-01
-1.500436067581176758e-01
-1.464277803897857666e-01
2.642080485820770264e-01
-9.698371589183807373e-02
1.288947761058807373e-01
1.235645711421966553e-01
-3.574725240468978882e-02
-4.440930858254432678e-02
-3.266256675124168396e-02
1.714183837175369263e-01
-1.768358610570430756e-02
-2.009559795260429382e-02
-3.923619911074638367e-02
2.086756229400634766e-01
3.393039703369140625e-01
1.120626088231801987e-02
-3.732663691043853760e-01
-1.076801344752311707e-01
1.209467154694721103e-04
3.315341100096702576e-02
1.256093103438615799e-02
8.631218969821929932e-02
6.009932234883308411e-02
-9.650179743766784668e-02
-3.930001854896545410e-01
-2.047960460186004639e-01
-1.310041407123208046e-03
1.406261473894119263e-01
-1.592263877391815186e-01
-9.132258594036102295e-02
-3.086096346378326416e-01
-5.725437030196189880e-02
-3.977671731263399124e-03
3.223471343517303467e-01
1.452588755637407303e-02
1.491174250841140747e-01
-1.345596760511398315e-01
9.870310127735137939e-02
-2.569883316755294800e-02
-4.914389550685882568e-02
-2.164396494626998901e-01
-2.877039015293121338e-01
3.147039934992790222e-02
1.434724926948547363e-01
-1.482803970575332642e-01
2.617193758487701416e-01
2.219283580780029297e-01
-1.147311255335807800e-01
-6.098823249340057373e-02
1.993298530578613281e-01
-4.970611631870269775e-02
1.659407168626785278e-01
-9.485083073377609253e-02
-1.128956973552703857e-01
1.863539963960647583e-01
4.504137635231018066e-01
7.937791198492050171e-02
-1.263142526149749756e-01
-1.438821703195571899e-01
-9.434724599123001099e-02
5.172220617532730103e-02
1.673280149698257446e-01
2.254387140274047852e-01
2.860300242900848389e-01
-1.728471182286739349e-02
2.057697921991348267e-01
1.922416090965270996e-01
1.665918156504631042e-02
-2.691906988620758057e-01
2.212987244129180908e-01
3.237696364521980286e-02
2.436808496713638306e-01
3.050933778285980225e-02
3.207653760910034180e-02
-1.637841463088989258e-01
-8.352282643318176270e-02
-1.817317008972167969e-01
2.906596101820468903e-02
-3.954946994781494141e-01
6.906921416521072388e-02
1.945236176252365112e-01
-2.919911444187164307e-01
-1.022105142474174500e-01
7.054740935564041138e-02
-3.013127446174621582e-01
-1.470971107482910156e-01
-3.993349373340606689e-01
-2.859057486057281494e-01
-2.586370706558227539e-01
-2.157018333673477173e-01
-1.311592161655426025e-01
1.009275987744331360e-01
-1.831150613725185394e-02
-1.891094148159027100e-01
1.219300329685211182e-01
-5.063525959849357605e-02
-1.380296200513839722e-01
-1.970014721155166626e-01
-2.369284257292747498e-02
1.961252838373184204e-01
-1.667152740992605686e-03
-1.060699746012687683e-01
4.528462886810302734e-05
-1.353007853031158447e-01
-1.259999573230743408e-01
6.338709592819213867e-02
-7.875626534223556519e-02
-3.341540694236755371e-03
-1.233128905296325684e-01
-9.812425822019577026e-02
3.666251897811889648e-03
-3.782092779874801636e-02
1.205946803092956543e-01
9.392544627189636230e-03
5.178099870681762695e-02
1.240785419940948486e-01
-1.116564720869064331e-01
-1.582182645797729492e-01
-2.039836347103118896e-02
-1.125899851322174072e-01
-1.614092290401458740e-02
1.349054872989654541e-01
4.246470332145690918e-02
-1.332216411828994751e-01
-4.141061007976531982e-02
9.745717048645019531e-02
7.591000199317932129e-02
-5.456906557083129883e-02
1.516778171062469482e-01
1.361829638481140137e-01
1.259255111217498779e-01
5.847537517547607422e-02
-1.122508347034454346e-01
7.342930138111114502e-02
-4.058515280485153198e-02
1.170733571052551270e-01
-1.343077123165130615e-01
-1.371354460716247559e-01
3.237190842628479004e-02
3.464081883430480957e-02
-1.336943507194519043e-01
-1.208730041980743408e-01
-3.114131093025207520e-02
2.082137763500213623e-02
-1.527460664510726929e-01
-1.360053867101669312e-01
-2.108845114707946777e-02
9.173744916915893555e-02
-8.927062153816223145e-02
7.235065102577209473e-02
-1.568397134542465210e-01
5.850808322429656982e-02
-1.184101402759552002e-02
1.475987136363983154e-01
-1.351520866155624390e-01
1.001702547073364258e-01
-4.549524188041687012e-02
7.039719820022583008e-02
-3.877026587724685669e-02
-4.121727496385574341e-02
1.532956957817077637e-02
-1.496559381484985352e-02
-9.892035275697708130e-02
-9.684681892395019531e-03
1.242696642875671387e-01
1.093723773956298828e-01
-5.598575621843338013e-02
4.480874538421630859e-02
1.426562070846557617e-01
7.133875787258148193e-02
1.173351705074310303e-01
-1.500373333692550659e-01
-1.537430733442306519e-01
2.856579422950744629e-02
8.895012736320495605e-02
-1.090152114629745483e-01
1.031513214111328125e-01
-1.536787748336791992e-01
-3.071933984756469727e-02
4.083224013447761536e-02
-1.038673669099807739e-01
-2.456502914428710938e-01
1.485303044319152832e-01
-1.068304702639579773e-01
-3.788555413484573364e-02
-3.818305209279060364e-02
4.138513002544641495e-03
-2.831234037876129150e-01
2.463089227676391602e-01
-3.288267850875854492e-01
2.057754248380661011e-01
6.658940762281417847e-02
-1.794240064918994904e-02
2.203864604234695435e-01
-1.190733257681131363e-02
3.263540863990783691e-01
2.390104532241821289e-01
1.281716823577880859e-01
7.216940820217132568e-02
-8.674074709415435791e-02
7.755614072084426880e-02
3.065525293350219727e-01
-2.070224434137344360e-01
2.330913394689559937e-01
-1.969706863164901733e-01
4.081900045275688171e-02
4.667358100414276123e-02
-3.144549205899238586e-02
-3.467512726783752441e-01
1.832794994115829468e-01
-2.841059267520904541e-01
-6.924165785312652588e-02
-1.339481770992279053e-01
1.826406568288803101e-01
-4.303400218486785889e-02
1.374388784170150757e-01
1.818584203720092773e-01
1.182087436318397522e-01
5.437101423740386963e-02
2.555474042892456055e-01
1.683599129319190979e-02
-1.339225023984909058e-01
1.470580929890275002e-03
2.495717108249664307e-01
1.545147746801376343e-01
-2.575799226760864258e-01
1.777904033660888672e-01
4.431061446666717529e-03
1.970359981060028076e-01
-2.520267367362976074e-01
6.422059983015060425e-02
-7.886653393507003784e-02
1.249225512146949768e-01
1.136391982436180115e-02
1.030899398028850555e-02
-3.105306625366210938e-01
-1.720712929964065552e-01
3.727289289236068726e-02
-1.763821989297866821e-01
1.296840012073516846e-01
2.464325875043869019e-01
-2.323169559240341187e-01
-9.140150994062423706e-02
8.208663016557693481e-02
3.841150086373090744e-03
-8.787030726671218872e-02
-2.134063541889190674e-01
-4.738011956214904785e-01
3.695281594991683960e-02
1.894865930080413818e-01
-1.764166653156280518e-01
4.540662169456481934e-01
-1.166916862130165100e-01
-3.927305340766906738e-01
-1.610243916511535645e-01
1.752160787582397461e-01
4.102861881256103516e-01
-2.334755472838878632e-02
-1.311044543981552124e-01
-4.792286828160285950e-02
3.827540948987007141e-02
-1.194856315851211548e-02
1.181227341294288635e-01
6.555227935314178467e-02
-4.863174632191658020e-02
-1.414871066808700562e-01
1.296995673328638077e-02
-1.230608373880386353e-01
9.082977473735809326e-02
4.284396022558212280e-02
-8.275320380926132202e-02
1.581558138132095337e-01
-5.316154286265373230e-02
-9.123042970895767212e-02
-6.254857778549194336e-02
-1.363561153411865234e-01
3.731502592563629150e-02
3.548872098326683044e-02
-1.359663307666778564e-01
5.648216232657432556e-02
1.171642914414405823e-01
9.125938266515731812e-02
1.266539245843887329e-01
-1.264159828424453735e-01
2.129393629729747772e-02
-6.707735359668731689e-02
-4.897991940379142761e-02
-1.427180916070938110e-01
-5.817195773124694824e-02
1.067224964499473572e-01
1.281905826181173325e-02
8.455783873796463013e-02
9.863001108169555664e-02
-1.560417860746383667e-01
1.358683109283447266e-01
-1.533883661031723022e-01
-1.198832690715789795e-01
2.335385791957378387e-02
-3.474336117506027222e-04
-2.482844144105911255e-02
1.464003026485443115e-01
8.256997913122177124e-02
5.869784951210021973e-02
-1.693737804889678955e-01
-3.473329171538352966e-02
-8.943092823028564453e-02
-3.424432128667831421e-02
-2.477485500276088715e-02
7.085514068603515625e-02
-1.249199137091636658e-01
-1.119184046983718872e-01
-2.863019332289695740e-02
-1.646472066640853882e-01
1.349034458398818970e-01
-1.059414595365524292e-01
1.393217891454696655e-01
1.180963069200515747e-01
1.251014322042465210e-01
5.266633257269859314e-02
-3.727722447365522385e-03
1.149649694561958313e-01
9.390944242477416992e-02
1.661831885576248169e-02
-1.247020140290260315e-01
-9.627818316221237183e-02
-7.959856837987899780e-02
1.218434199690818787e-01
-5.068564042448997498e-02
-1.441021412611007690e-01
-1.170793995261192322e-01
-8.920682221651077271e-02
1.386598404496908188e-02
-4.785617068409919739e-02
-6.245792284607887268e-02
-4.110999032855033875e-02
-8.450730890035629272e-02
-3.430142998695373535e-02
3.989461064338684082e-02
7.816570997238159180e-02
-1.317702680826187134e-01
-1.579792648553848267e-01
-1.871557533740997314e-02
-8.421131968498229980e-02
4.419025778770446777e-02
7.889282703399658203e-02
-8.929692953824996948e-02
9.947884082794189453e-02
-1.294590532779693604e-02
-1.225510239601135254e-02
-7.717192173004150391e-03
9.464114904403686523e-02
-1.178391277790069580e-01
4.951182007789611816e-02
6.485405564308166504e-02
5.682718753814697266e-02
-2.246764302253723145e-02
-6.166557967662811279e-02
8.709940314292907715e-02
4.027457535266876221e-02
-1.144083887338638306e-01
1.031644642353057861e-01
5.774715542793273926e-02
-1.242771744728088379e-03
-1.415452957153320312e-01
-2.009274065494537354e-02
-9.978264570236206055e-02
-3.711548447608947754e-02
-2.252978086471557617e-02
-1.191479116678237915e-01
-1.217152029275894165e-01
1.487193703651428223e-01
-8.743031322956085205e-02
4.241909086704254150e-02
3.221631050109863281e-04
9.061439335346221924e-02
-2.905974090099334717e-01
1.826783567667007446e-01
-3.185921609401702881e-01
-1.561790853738784790e-01
-8.980319648981094360e-02
2.177571952342987061e-01
-2.307857125997543335e-01
-2.970107197761535645e-01
9.926430881023406982e-02
1.934759467840194702e-01
1.967641413211822510e-01
2.713069915771484375e-01
-8.964971452951431274e-02
7.703304756432771683e-03
-2.630705535411834717e-01
-2.634995989501476288e-02
1.566007584333419800e-01
1.132769286632537842e-01
1.831908524036407471e-01
-3.604795038700103760e-02
-2.907035052776336670e-01
1.245865449309349060e-01
1.129903495311737061e-01
-1.742204427719116211e-01
-1.483656764030456543e-01
-4.584669321775436401e-02
7.883104681968688965e-02
-1.432487517595291138e-01
1.293438971042633057e-01
-1.426286995410919189e-01
4.191148653626441956e-02
-2.884380221366882324e-01
-1.099744662642478943e-01
2.637772560119628906e-01
-1.079470142722129822e-01
7.620187103748321533e-02
4.426487535238265991e-02
-1.552049368619918823e-01
-5.221500247716903687e-02
-3.441139683127403259e-02
8.206125348806381226e-02
9.037143737077713013e-02
-1.616059541702270508e-01
-1.040051728487014771e-01
-1.991958357393741608e-03
5.293922126293182373e-02
-4.259582981467247009e-02
7.933603227138519287e-02
-1.009253636002540588e-01
7.622995972633361816e-02
-1.658957637846469879e-02
1.598421670496463776e-02
-1.420499682426452637e-01
-1.649410873651504517e-01
1.311516761779785156e-01
-2.252107299864292145e-02
-5.965546518564224243e-02
9.993673115968704224e-02
-8.857896178960800171e-02
3.426933288574218750e-02
-1.242570132017135620e-01
-4.310957714915275574e-02
-1.717780828475952148e-01
3.448683768510818481e-02
-7.625292241573333740e-02
6.992223858833312988e-02
-8.982983231544494629e-02
2.942935936152935028e-02
7.522381097078323364e-02
-6.751925498247146606e-02
3.270632296334952116e-04
1.809632172808051109e-03
-1.034219488501548767e-01
-1.017270833253860474e-01
1.246970668435096741e-01
1.193203381262719631e-03
-7.782368361949920654e-02
1.238179299980401993e-02
2.763949334621429443e-01
7.193461060523986816e-02
4.111484289169311523e-01
1.860298514366149902e-01
-4.276777803897857666e-01
-7.564421743154525757e-02
-1.198823377490043640e-01
-2.632114887237548828e-01
5.178792402148246765e-02
2.084164023399353027e-01
-5.598703399300575256e-02
-1.732186526060104370e-01
-1.828514784574508667e-02
-2.033126652240753174e-01
-3.234837353229522705e-01
-2.929919064044952393e-01
-2.719505131244659424e-01
4.980524629354476929e-02
-8.829125761985778809e-02
6.724154110997915268e-03
3.547972068190574646e-02
-6.008789408951997757e-03
1.554482132196426392e-01
-1.016642525792121887e-01
-6.199470534920692444e-02
6.911312788724899292e-02
-3.125712275505065918e-02
-4.710240364074707031e-01
1.503734886646270752e-01
9.484511613845825195e-02
9.074523299932479858e-02
3.368423581123352051e-01
5.756701156497001648e-02
1.917735040187835693e-01
3.062222301959991455e-01
-9.442931413650512695e-02
1.012679263949394226e-01
5.415654554963111877e-02
3.553878283128142357e-03
-1.988817751407623291e-02
2.038772590458393097e-02
-1.632084101438522339e-01
-1.557556539773941040e-01
-2.855680882930755615e-01
-1.686831191182136536e-02
-1.051503326743841171e-02
1.227824315428733826e-01
1.315388977527618408e-01
-2.824789844453334808e-02
1.707658171653747559e-01
-3.332595154643058777e-02
-4.901605471968650818e-02
1.771143823862075806e-01
3.662948012351989746e-01
-2.313286662101745605e-01
1.899681687355041504e-01
-2.221484780311584473e-01
-9.615134447813034058e-03
-1.019494235515594482e-01
-1.059859171509742737e-01
8.652539551258087158e-02
-8.880792185664176941e-03
2.606278955936431885e-01
3.269090503454208374e-02
2.640384733676910400e-01
1.276806741952896118e-01
-3.208427727222442627e-01
1.517406851053237915e-01
-2.493765056133270264e-01
-6.221006438136100769e-02
1.180308521725237370e-03
-3.738739490509033203e-01
-2.913577556610107422e-01
-5.371980071067810059e-01
-2.744054980576038361e-02
1.319137215614318848e-01
-2.456708699464797974e-01
1.156370714306831360e-01
1.275808066129684448e-01
-1.364303827285766602e-01
-3.972228765487670898e-01
-5.482787638902664185e-02
2.691534347832202911e-02
-1.356202512979507446e-01
-1.881333738565444946e-01
5.781839415431022644e-02
6.468132883310317993e-02
2.687824368476867676e-01
3.873731195926666260e-02
2.240950763225555420e-01
-1.249991655349731445e-01
1.790831387042999268e-01
1.633286662399768829e-02
-1.477313041687011719e-01
8.045155555009841919e-02
7.556340098381042480e-02
2.107385545969009399e-01
2.398348897695541382e-01
8.100525289773941040e-02
-8.239094167947769165e-02
-3.767311945557594299e-02
-5.997411906719207764e-02
-4.251179844141006470e-02
-1.210332438349723816e-01
-9.332047775387763977e-03
2.691479325294494629e-01
3.070322871208190918e-01
1.269791126251220703e-01
-2.005629688501358032e-01
-8.591108024120330811e-02
-2.711977437138557434e-02
-8.101426064968109131e-02
-1.357438117265701294e-01
2.096927911043167114e-02
1.441412717103958130e-01
1.633773893117904663e-01
6.624638289213180542e-02
6.855873763561248779e-02
-2.594385743141174316e-01
-1.201533675193786621e-01
-3.558506965637207031e-01
-1.516927480697631836e-01
-2.040944546461105347e-01
-1.986275427043437958e-02
1.195961609482765198e-01
8.620364218950271606e-02
1.332793980836868286e-01
1.807213723659515381e-01
1.209663972258567810e-01
-1.290793567895889282e-01
-6.033149361610412598e-02
-1.346097886562347412e-01
-1.308494061231613159e-01
3.022899925708770752e-01
-1.067160069942474365e-01
-2.601010799407958984e-01
-8.981668204069137573e-02
-1.657518558204174042e-02
-1.972498744726181030e-01
-3.432331979274749756e-02
4.286225438117980957e-01
1.806030608713626862e-02
1.649674475193023682e-01
-1.047905907034873962e-01
-5.239639431238174438e-02
-3.846054673194885254e-01
-4.836207628250122070e-01
-2.623671591281890869e-01
-1.408745646476745605e-01
-1.169133037328720093e-01
-2.708619534969329834e-01
-2.744493186473846436e-01
4.603046458214521408e-03
2.769805788993835449e-01
9.913913160562515259e-02
9.446916729211807251e-02
4.173866808414459229e-01
7.838166952133178711e-01
4.101610779762268066e-01
2.498491853475570679e-01
1.320437937974929810e-01
-8.071741461753845215e-02
-8.943194895982742310e-02
1.406911313533782959e-01
2.573140896856784821e-02
-4.613585770130157471e-02
-5.494114756584167480e-02
-1.246459186077117920e-01
1.698553860187530518e-01
1.779928654432296753e-01
2.987853810191154480e-02
-1.715727746486663818e-01
7.549931108951568604e-02
-5.042632669210433960e-02
-2.375340014696121216e-01
-1.398527324199676514e-01
1.592141091823577881e-01
-4.401749745011329651e-02
-2.699916064739227295e-01
-2.122416347265243530e-01
-1.485878229141235352e-02
1.363697052001953125e-01
-1.027388721704483032e-01
-2.599672079086303711e-01
-5.130755901336669922e-02
3.021173477172851562e-01
3.514701128005981445e-02
3.505476936697959900e-02
4.612865298986434937e-02
-1.551567018032073975e-01
6.986975669860839844e-02
9.418627619743347168e-02
2.399631142616271973e-01
-3.131235018372535706e-02
-1.650577932596206665e-01
1.476273983716964722e-01
1.014606058597564697e-01
4.350606352090835571e-02
-7.029274702072143555e-01
-1.014242842793464661e-01
-2.319022268056869507e-01
-5.505093187093734741e-02
-1.454905122518539429e-01
-1.957772076129913330e-01
-7.706623524427413940e-02
-1.527126282453536987e-01
-3.303251927718520164e-03
-1.891299337148666382e-01
1.148419231176376343e-01
3.988172709941864014e-01
3.261180818080902100e-01
-4.838380217552185059e-01
-1.562977731227874756e-01
1.610406190156936646e-01
8.568295091390609741e-02
3.628234565258026123e-01
9.343913756310939789e-03
-1.709736883640289307e-01
4.016080126166343689e-02
-1.955939084291458130e-01
4.914156347513198853e-02
1.237209290266036987e-01
3.243916034698486328e-01
5.460143089294433594e-01
1.454256623983383179e-01
-1.601878851652145386e-01
-1.904349476099014282e-01
6.562022864818572998e-02
9.890570491552352905e-02
2.901273071765899658e-01
-3.516681194305419922e-01
-2.514513731002807617e-01
-6.870296597480773926e-02
8.069959469139575958e-03
-1.169401928782463074e-01
4.546876624226570129e-02
-9.870355576276779175e-02
-1.056808233261108398e-01
-7.406440377235412598e-02
1.516207009553909302e-01
4.418767243623733521e-02
-1.326183229684829712e-01
-5.656665563583374023e-02
-3.335895761847496033e-02
-6.894051283597946167e-02
1.026171371340751648e-01
-4.743432253599166870e-02
8.726364374160766602e-02
-1.187648698687553406e-01
1.034958474338054657e-02
8.131983876228332520e-02
6.827315688133239746e-02
5.240046977996826172e-02
5.239805206656455994e-02
-1.526732742786407471e-01
3.456561639904975891e-02
1.351957023143768311e-01
3.039487078785896301e-02
1.745305024087429047e-02
-1.195779442787170410e-02
-1.000323742628097534e-01
-7.206954061985015869e-02
-1.945703662931919098e-02
8.453005552291870117e-02
2.937519550323486328e-02
-1.201397404074668884e-01
-9.718108177185058594e-02
-1.521111279726028442e-01
9.239476174116134644e-02
-7.063246518373489380e-02
-1.508600413799285889e-01
1.375051885843276978e-01
5.361169204115867615e-02
-1.151229813694953918e-01
-3.313318192958831787e-01
4.895679652690887451e-01
-2.972730398178100586e-01
2.672885358333587646e-01
-6.852600723505020142e-02
1.875064820051193237e-01
1.351182758808135986e-01
-2.489019744098186493e-02
-2.429010719060897827e-01
-6.585998833179473877e-02
-1.451476365327835083e-01
2.319061309099197388e-01
-1.600411371327936649e-03
2.299386858940124512e-01
-1.342222443781793118e-03
-5.166500806808471680e-02
2.796450555324554443e-01
-6.918256729841232300e-02
-6.663025170564651489e-02
-1.307456940412521362e-01
-4.857071489095687866e-02
6.057298183441162109e-02
7.939617335796356201e-02
-4.904439300298690796e-02
8.452526479959487915e-02
1.279526203870773315e-01
-1.289819777011871338e-01
-7.013881206512451172e-01
2.862797975540161133e-01
-2.191968262195587158e-02
-3.937612473964691162e-01
1.240825206041336060e-01
2.002800703048706055e-01
2.120946943759918213e-01
4.857058823108673096e-02
1.378159038722515106e-02
-4.567944258451461792e-02
-3.245189785957336426e-03
8.565965294837951660e-02
-1.244135349988937378e-01
-2.107441425323486328e-03
-1.548635065555572510e-01
9.223055839538574219e-02
-9.457634389400482178e-02
7.630454003810882568e-02
-4.513847082853317261e-02
1.490960419178009033e-01
3.151936829090118408e-02
-9.641815721988677979e-02
7.100519537925720215e-02
1.245220005512237549e-01
6.782016158103942871e-02
-3.251627087593078613e-02
-5.172267556190490723e-03
-1.561925709247589111e-01
-6.729796528816223145e-03
1.433257460594177246e-01
-1.907828450202941895e-02
8.566960692405700684e-03
1.276627182960510254e-01
-7.336506247520446777e-02
6.528148055076599121e-02
-1.497562080621719360e-01
-9.886522591114044189e-02
-1.488610804080963135e-01
-1.379197984933853149e-01
6.256492435932159424e-02
1.243954300880432129e-01
1.033094227313995361e-01
1.134574711322784424e-01
-9.106276929378509521e-02
-5.625998228788375854e-02
-7.346417009830474854e-02
8.047357201576232910e-02
-3.284236788749694824e-02
1.365031003952026367e-01
-1.459447890520095825e-01
-1.658433675765991211e-02
-1.106442138552665710e-01
-1.480293869972229004e-01
1.600235700607299805e-03
-1.505217403173446655e-01
-1.069975197315216064e-01
1.412510871887207031e-02
-6.935986131429672241e-02
-1.544234752655029297e-01
1.011663079261779785e-01
1.330087482929229736e-01
-1.249890327453613281e-01
-9.414210915565490723e-03
-5.516657978296279907e-02
-6.099313497543334961e-03
-1.286225020885467529e-02
4.200769960880279541e-02
1.407113671302795410e-01
9.279605746269226074e-02
-5.628687888383865356e-02
3.520332276821136475e-02
2.568066120147705078e-02
7.767301797866821289e-02
1.267008483409881592e-01
1.561219096183776855e-01
-1.417848914861679077e-01
1.538800001144409180e-01
-9.746800363063812256e-02
1.757189631462097168e-02
9.137463569641113281e-02
2.964349091053009033e-02
2.666530013084411621e-02
1.521980166435241699e-01
1.871898770332336426e-02
2.050030231475830078e-02
-5.536434054374694824e-02
1.293720602989196777e-01
-1.386873275041580200e-01
-1.155841201543807983e-01
1.530292630195617676e-02
8.086238801479339600e-02
1.688185334205627441e-02
9.548330307006835938e-02
2.275253832340240479e-02
-7.904263585805892944e-02
8.379414677619934082e-02
-1.166523247957229614e-01
9.969741106033325195e-02
5.570518970489501953e-02
5.733627080917358398e-02
7.300238311290740967e-02
4.216343164443969727e-02
1.854480803012847900e-02
-9.461398422718048096e-02
-2.599158883094787598e-02
-8.468275517225265503e-02
-5.921711772680282593e-02
5.379958450794219971e-02
6.724169850349426270e-02
9.792238473892211914e-02
-8.023720979690551758e-02
3.343784809112548828e-02
5.012109875679016113e-03
1.427636146545410156e-01
1.296313703060150146e-01
-9.023804217576980591e-02
-1.273613125085830688e-01
-1.533241868019104004e-01
-5.511011928319931030e-02
1.121355891227722168e-01
1.059482097625732422e-01
2.187328040599822998e-02
1.353229582309722900e-02
-1.129314303398132324e-01
-3.862381726503372192e-02
3.789763152599334717e-02
1.521266102790832520e-01
-6.020235270261764526e-02
-1.409905552864074707e-01
-1.541212946176528931e-01
7.916335761547088623e-02
1.335894763469696045e-01
1.084047257900238037e-01
-7.902804762125015259e-02
-6.129191815853118896e-02
2.344276010990142822e-02
-1.433237195014953613e-01
1.096196174621582031e-01
2.109573781490325928e-02
4.631994664669036865e-02
1.071932315826416016e-01
-1.280544251203536987e-01
-4.416719079017639160e-03
-7.728215306997299194e-02
-9.069219976663589478e-02
2.088895440101623535e-02
-7.505642622709274292e-02
1.410660147666931152e-02
-1.301881074905395508e-01
1.300977170467376709e-01
-1.124977469444274902e-01
1.229954063892364502e-01
-1.050644144415855408e-01
-4.680621623992919922e-02
4.548351466655731201e-02
1.956941187381744385e-02
7.540118694305419922e-02
1.043084561824798584e-01
-8.709354698657989502e-02
1.566342115402221680e-01
-1.591145545244216919e-01
8.509512245655059814e-02
-8.670671284198760986e-02
-4.293458163738250732e-02
-3.688823431730270386e-02
1.311363279819488525e-01
9.996160119771957397e-02
-3.875229358673095703e-01
-4.389880597591400146e-02
-9.558580070734024048e-02
-4.154173284769058228e-02
1.694073677062988281e-01
1.081487610936164856e-01
-1.025362089276313782e-01
4.101697728037834167e-02
-1.279180794954299927e-01
-1.336585432291030884e-01
6.271886080503463745e-02
8.850723505020141602e-02
-7.902892678976058960e-02
-5.084487795829772949e-02
1.459660083055496216e-01
-2.889639735221862793e-01
1.794785112142562866e-01
4.886553436517715454e-02
2.627618797123432159e-02
-6.766585260629653931e-02
-3.600701987743377686e-01
-1.873582154512405396e-01
5.578823015093803406e-02
-2.551343142986297607e-01
1.156780794262886047e-01
1.326056569814682007e-01
-5.310010537505149841e-02
-2.480968460440635681e-02
9.407832403667271137e-04
1.016812622547149658e-01
4.980570822954177856e-02
-2.024067938327789307e-01
-4.602566733956336975e-02
1.310447156429290771e-01
-3.259701132774353027e-01
-2.990902662277221680e-01
8.551447093486785889e-02
9.688537567853927612e-02
-9.473254531621932983e-02
5.142889618873596191e-01
1.196383312344551086e-01
1.919793784618377686e-01
2.093370258808135986e-01
-7.504235208034515381e-02
2.234042435884475708e-01
1.757473647594451904e-01
1.012480165809392929e-02
1.915994584560394287e-01
-2.245834916830062866e-01
-1.091667488217353821e-01
-1.909785717725753784e-01
-1.492867767810821533e-01
-1.872873157262802124e-01
-8.071890473365783691e-02
2.406823076307773590e-02
-7.748193293809890747e-02
-2.157938629388809204e-01
1.365810632705688477e-01
-7.512937486171722412e-02
5.452316626906394958e-02
-4.016498327255249023e-01
-1.195344030857086182e-01
-4.054398089647293091e-02
1.684376597404479980e-02
6.325221806764602661e-02
-6.208131834864616394e-02
-8.828011900186538696e-02
-3.830310702323913574e-01
-1.596598178148269653e-01
7.509977370500564575e-02
-2.102568559348583221e-02
-8.497064560651779175e-02
-1.255196183919906616e-01
-1.814038455486297607e-01
4.775229096412658691e-02
-6.421290338039398193e-02
-4.036244377493858337e-02
1.948474198579788208e-01
-1.002495646476745605e+00
-1.422472670674324036e-02
2.387485802173614502e-01
-3.969433009624481201e-01
-2.013622969388961792e-01
-2.306543663144111633e-02
7.709331065416336060e-02
7.718357443809509277e-02
-1.116115525364875793e-01
-2.622117102146148682e-01
-7.395312935113906860e-02
-3.384461402893066406e-01
6.004709005355834961e-02
1.354056745767593384e-01
1.723578572273254395e-01
5.974793806672096252e-03
2.699519097805023193e-01
-2.303727120161056519e-01
2.519856691360473633e-01
3.273503184318542480e-01
2.632660567760467529e-01
-1.194001082330942154e-02
-2.657373547554016113e-01
2.361236214637756348e-01
-1.053812354803085327e-01
-5.085237696766853333e-02
-8.794559538364410400e-02
-1.984050124883651733e-02
5.731891375035047531e-03
3.118785321712493896e-01
1.918273717164993286e-01
2.158153355121612549e-01
6.150680407881736755e-02
-4.614231884479522705e-01
-1.061229258775711060e-01
3.125078380107879639e-01
1.829026192426681519e-01
1.882886439561843872e-01
-6.327900290489196777e-02
-5.273461341857910156e-02
-2.765701711177825928e-02
1.480256319046020508e-01
-9.051984548568725586e-02
6.673768162727355957e-03
-7.269059866666793823e-02
-6.621971726417541504e-02
-1.655954122543334961e-02
-1.511047333478927612e-01
-1.311948746442794800e-01
1.304320394992828369e-01
-9.956105053424835205e-02
1.301713585853576660e-01
-3.535673767328262329e-02
-1.642242074012756348e-02
-5.817644298076629639e-02
-6.906751543283462524e-02
-1.217463538050651550e-01
6.605497002601623535e-02
-3.815103322267532349e-02
-1.354248970746994019e-01
5.440320074558258057e-02
1.410535573959350586e-01
-1.110789775848388672e-01
1.017140448093414307e-01
-2.871316671371459961e-02
-8.304787427186965942e-02
-1.588644832372665405e-01
-7.366563379764556885e-02
-6.400609016418457031e-02
-1.044719591736793518e-01
1.521779000759124756e-01
2.729740738868713379e-02
2.715186774730682373e-02
1.022119820117950439e-01
1.076183319091796875e-01
-4.041482508182525635e-02
1.020396053791046143e-01
-6.053707003593444824e-02
8.451257646083831787e-02
8.764313161373138428e-02
-7.996908575296401978e-02
-5.534328520298004150e-02
-1.189838051795959473e-01
-2.893503010272979736e-02
-9.080298990011215210e-02
1.226255893707275391e-01
9.293222427368164062e-02
3.275616466999053955e-02
2.408981323242187500e-02
4.311884939670562744e-02
-5.798585712909698486e-02
2.525664865970611572e-02
-1.254460215568542480e-01
-1.417446136474609375e-01
1.595231890678405762e-01
1.481768190860748291e-01
-5.240737646818161011e-02
-8.426293730735778809e-03
1.169976294040679932e-01
1.036055088043212891e-01
1.553552150726318359e-01
8.104337751865386963e-02
-1.497750282287597656e-01
-1.307343542575836182e-01
7.353931665420532227e-03
-1.567006409168243408e-01
7.111212611198425293e-02
3.546571731567382812e-02
-1.370958536863327026e-01
-1.093507781624794006e-01
-7.797509431838989258e-02
8.766710758209228516e-02
1.000429391860961914e-01
1.122866570949554443e-01
-9.535489976406097412e-02
9.417012333869934082e-02
2.758988179266452789e-02
1.658363044261932373e-01
-1.415904238820075989e-02
1.435829102993011475e-01
1.210646107792854309e-01
-2.032850831747055054e-01
-1.130631044507026672e-01
1.573840714991092682e-02
-1.453254967927932739e-01
-7.425074279308319092e-02
-2.304081059992313385e-02
-1.646278612315654755e-02
-1.813529729843139648e-01
-2.102448977530002594e-02
-1.360248774290084839e-01
-2.893202006816864014e-02
-4.074909389019012451e-01
-2.243717908859252930e-01
-1.119008660316467285e-01
-7.964179664850234985e-02
1.016597300767898560e-01
1.377286314964294434e-01
-8.091310411691665649e-02
-2.466102875769138336e-02
9.736578911542892456e-02
2.952611632645130157e-02
2.077711373567581177e-02
1.950019448995590210e-01
1.903740912675857544e-01
4.252699613571166992e-01
1.917761564254760742e-02
-2.129094861447811127e-02
9.535483270883560181e-02
1.882012337446212769e-01
3.826437145471572876e-02
9.527505934238433838e-02
2.021878808736801147e-01
-7.315640151500701904e-02
-7.153102755546569824e-02
1.635327935218811035e-02
8.201863616704940796e-02
-6.886012107133865356e-02
1.369293183088302612e-01
6.842601299285888672e-02
5.626426264643669128e-02
-1.741152442991733551e-02
5.798235908150672913e-02
-8.719059824943542480e-02
-1.536150276660919189e-01
-7.624954730272293091e-02
1.429369300603866577e-02
-3.959589079022407532e-02
5.374619504436850548e-04
-1.629225164651870728e-02
-5.561595037579536438e-02
-1.094106212258338928e-02
4.668745771050453186e-02
9.012218564748764038e-02
-1.723709553480148315e-01
1.141635105013847351e-01
-1.005572155117988586e-01
-1.693547703325748444e-02
-8.286948315799236298e-03
1.347034275531768799e-01
-1.781563647091388702e-02
-1.112366989254951477e-01
-4.660186916589736938e-02
-3.477770090103149414e-02
-4.435488209128379822e-02
7.816103100776672363e-02
-1.261197328567504883e-01
-9.771592915058135986e-02
8.723536878824234009e-02
-1.541444063186645508e-01
1.088825389742851257e-01
-1.621661484241485596e-01
8.150018751621246338e-02
-2.394491434097290039e-02
1.310966312885284424e-01
1.705954819917678833e-01
-2.711980640888214111e-01
-1.819282025098800659e-01
1.217162236571311951e-01
-4.003740474581718445e-02
6.901817768812179565e-02
-4.106326960027217865e-03
-1.381009668111801147e-01
1.034580636769533157e-03
-1.174638494849205017e-01
-6.983973085880279541e-02
-9.567882120609283447e-02
-1.762848719954490662e-02
-3.350646793842315674e-02
-8.608907461166381836e-02
-1.409063935279846191e-01
-5.748677998781204224e-02
2.330129779875278473e-02
3.712692856788635254e-02
1.166682839393615723e-01
2.449484728276729584e-02
3.963468596339225769e-02
1.086034104228019714e-01
2.522786259651184082e-01
-2.461731899529695511e-03
2.016348019242286682e-02
-1.561293452978134155e-01
7.818756252527236938e-02
-7.260750234127044678e-02
-2.305186912417411804e-02
-1.149278730154037476e-01
1.444146335124969482e-01
1.532505638897418976e-02
-3.050894942134618759e-03
2.008709311485290527e-01
3.005312383174896240e-01
-1.692786216735839844e-01
-3.060543350875377655e-02
-6.345242261886596680e-02
-1.500244885683059692e-01
4.039719700813293457e-03
5.170941352844238281e-02
1.218421161174774170e-01
-1.275591850280761719e-01
-1.202804893255233765e-01
-1.112478971481323242e-01
-1.036471500992774963e-01
-1.549133658409118652e-01
-1.599982529878616333e-01
9.423196315765380859e-04
-4.842309653759002686e-02
1.412055790424346924e-01
-5.348793417215347290e-02
-5.631616711616516113e-02
6.448252499103546143e-02
7.082220911979675293e-02
1.344514489173889160e-01
-1.604333519935607910e-02
1.214192211627960205e-01
1.406410336494445801e-02
8.105698227882385254e-02
-1.194124668836593628e-01
6.613603234291076660e-02
3.733834624290466309e-02
6.652694940567016602e-02
1.094119846820831299e-01
-9.998440742492675781e-03
6.729361414909362793e-02
1.361240148544311523e-01
-7.426412403583526611e-02
4.078619182109832764e-02
-7.472597807645797729e-02
-1.466927528381347656e-01
-6.739367544651031494e-02
4.656803607940673828e-02
-1.469374746084213257e-01
-2.731575071811676025e-02
9.462175518274307251e-02
-1.539220511913299561e-01
-3.575809299945831299e-01
2.529489062726497650e-02
2.337807789444923401e-02
-6.495652347803115845e-02
1.836640983819961548e-01
8.776907622814178467e-02
-5.015313625335693359e-02
-3.640379384160041809e-02
1.215637940913438797e-02
-5.377503111958503723e-02
-8.621640503406524658e-02
-1.899440772831439972e-02
-2.089355885982513428e-01
2.770232856273651123e-01
8.220746368169784546e-02
1.543547511100769043e-01
-1.033985391259193420e-01
-1.148267537355422974e-01
-1.672692149877548218e-01
-1.975536495447158813e-01
6.810311973094940186e-02
3.230825066566467285e-01
-7.450888305902481079e-02
1.072469875216484070e-01
-7.198090106248855591e-02
2.575364522635936737e-02
-1.756484806537628174e-01
-1.419506520032882690e-01
-2.909967899322509766e-01
-1.189873293042182922e-01
-3.067405223846435547e-01
8.917359262704849243e-02
8.172486722469329834e-02
-1.095758527517318726e-01
-7.790744304656982422e-02
-1.194428130984306335e-01
1.052883788943290710e-01
1.403657346963882446e-01
-4.175567030906677246e-01
-2.161829918622970581e-01
-2.867664583027362823e-02
-2.719882428646087646e-01
-1.185327582061290741e-02
3.897021338343620300e-02
9.825935214757919312e-02
-1.137325167655944824e-01
-1.871514469385147095e-01
-2.038138657808303833e-01
3.426842391490936279e-02
-9.382753819227218628e-02
5.340301617980003357e-02
3.617614880204200745e-02
4.086767733097076416e-01
3.186976611614227295e-01
1.897925585508346558e-01
-6.633900851011276245e-02
2.571540474891662598e-01
5.598535388708114624e-02
-1.327481865882873535e-01
-7.996794581413269043e-02
1.710757762193679810e-01
-1.363356113433837891e-01
-4.752470552921295166e-02
1.654193997383117676e-01
-9.519147127866744995e-02
-6.561435759067535400e-02
-2.008009552955627441e-01
2.029615342617034912e-01
-1.036673188209533691e-01
-1.719927340745925903e-01
-9.351828694343566895e-02
-1.109652742743492126e-01
1.986200362443923950e-01
3.135382011532783508e-02
1.618953980505466461e-02
9.398541599512100220e-02
1.370409727096557617e-01
2.706973254680633545e-01
2.267358005046844482e-01
8.533155918121337891e-02
1.304575800895690918e-01
2.168881446123123169e-01
-6.047935411334037781e-02
3.593156933784484863e-01
2.713828533887863159e-02
-9.906647354364395142e-02
-1.005693376064300537e-01
4.960393905639648438e-02
1.600029692053794861e-02
6.890283524990081787e-02
-1.031615361571311951e-01
-7.844228297472000122e-02
-1.166347786784172058e-02
-3.059529364109039307e-01
1.678640581667423248e-02
1.056872587651014328e-02
6.417074054479598999e-02
-2.011672593653202057e-02
1.485265791416168213e-01
7.048363983631134033e-02
9.330247342586517334e-02
-4.589055851101875305e-02
-3.639465942978858948e-02
-1.170654818415641785e-01
-7.580224424600601196e-02
-1.514265686273574829e-01
-3.838923573493957520e-01
-8.077955245971679688e-02
-1.115222722291946411e-01
4.996292665600776672e-02
-1.065583303570747375e-01
4.505060613155364990e-02
1.073774173855781555e-01
-8.123558759689331055e-02
-1.378411799669265747e-01
7.641555368900299072e-02
4.161307960748672485e-02
-4.905135929584503174e-01
-7.137311995029449463e-02
-1.689773052930831909e-01
-1.479912996292114258e-01
-2.092846035957336426e-01
-1.281574815511703491e-01
7.049495726823806763e-02
-3.899443149566650391e-01
2.362863272428512573e-01
7.839786261320114136e-02
2.024483084678649902e-01
1.561978757381439209e-01
6.494306027889251709e-02
2.343135923147201538e-01
-2.070571780204772949e-01
3.464300334453582764e-01
1.745401769876480103e-01
-1.536761075258255005e-01
3.043853938579559326e-01
1.277780234813690186e-01
1.600817739963531494e-01
1.087387427687644958e-01
1.013592109084129333e-01
8.432646095752716064e-02
1.751028895378112793e-01
-1.361740976572036743e-01
8.740085363388061523e-02
3.713553249835968018e-01
9.663724154233932495e-02
-1.947757303714752197e-01
4.558494389057159424e-01
1.091481745243072510e-02
-1.767807155847549438e-01
6.304231286048889160e-02
-4.689274728298187256e-02
3.066484071314334869e-02
6.762873381376266479e-02
1.988426148891448975e-01
2.564175128936767578e-01
8.840949833393096924e-02
-3.363733291625976562e-01
-4.842867553234100342e-01
-3.127052485942840576e-01
8.066969364881515503e-02
1.668919175863265991e-01
-1.038559991866350174e-02
2.518330216407775879e-01
1.737096160650253296e-01
1.552727073431015015e-01
2.861596345901489258e-01
2.846161127090454102e-01
1.318684071302413940e-01
-8.754802942276000977e-01
-4.322839900851249695e-02
-2.836009114980697632e-02
1.228063926100730896e-01
6.563252210617065430e-02
3.071853518486022949e-01
1.516368389129638672e-01
4.879362881183624268e-03
-9.756118804216384888e-02
-2.817213535308837891e-01
9.383919090032577515e-02
1.461891382932662964e-01
1.610836759209632874e-02
9.026231616735458374e-02
2.639673352241516113e-01
-6.389737874269485474e-02
-7.237089425325393677e-02
-2.184107601642608643e-01
-1.937636435031890869e-01
-4.521135985851287842e-01
4.637656733393669128e-02
-2.927905619144439697e-01
-1.061885133385658264e-01
-5.849977955222129822e-02
-1.344699114561080933e-01
1.323349773883819580e-01
8.918321132659912109e-02
6.657753884792327881e-02
-9.055791050195693970e-02
-1.180492043495178223e-01
-2.862669527530670166e-02
8.735455572605133057e-02
8.643533289432525635e-02
-6.305775791406631470e-02
1.071457862854003906e-01
-7.769040763378143311e-02
3.197103738784790039e-02
1.295330524444580078e-01
5.515402555465698242e-02
-3.017798066139221191e-03
-8.785942941904067993e-02
-7.812404632568359375e-02
8.681778609752655029e-02
-2.231182157993316650e-02
-8.616894483566284180e-03
-2.074430882930755615e-02
1.562559902667999268e-01
1.178586483001708984e-02
-7.709302008152008057e-02
-1.113120764493942261e-01
5.143792927265167236e-02
-1.226941049098968506e-01
7.751022279262542725e-02
1.503554880619049072e-01
-9.818510711193084717e-02
-1.472657173871994019e-01
-1.146739125251770020e-01
1.406210958957672119e-01
-1.354947984218597412e-01
-1.548877805471420288e-01
1.308952569961547852e-01
-9.899932146072387695e-02
-1.062844693660736084e-01
-1.880733817815780640e-01
-2.201988175511360168e-02
1.600520014762878418e-01
-7.611899822950363159e-02
1.124830469489097595e-01
1.242098659276962280e-01
3.580053448677062988e-01
3.345901966094970703e-01
2.508233785629272461e-01
1.197893470525741577e-01
-1.353125087916851044e-03
-1.620857417583465576e-01
-4.285202026367187500e-01
-1.242870464920997620e-02
-9.615211188793182373e-02
1.960369944572448730e-01
4.765001535415649414e-01
3.337461734190583229e-03
-6.786867976188659668e-02
2.440939694643020630e-01
-1.745332479476928711e-01
-1.681836992502212524e-01
-1.409653574228286743e-01
-1.192429736256599426e-01
2.473619580268859863e-01
3.630204591900110245e-04
-7.029248401522636414e-03
-3.700222447514533997e-02
1.121917814016342163e-01
3.385542035102844238e-01
7.900907099246978760e-02
2.818638980388641357e-01
7.753493729978799820e-03
-2.854041159152984619e-01
3.879403322935104370e-02
1.317514926195144653e-01
3.105155229568481445e-01
8.640860766172409058e-02
3.485281392931938171e-02
1.643647998571395874e-01
1.172434985637664795e-01
-3.752246266230940819e-03
1.593201309442520142e-01
-2.072850316762924194e-01
1.730691194534301758e-01
9.697424620389938354e-02
-3.037984669208526611e-01
-2.921741902828216553e-01
-1.093286871910095215e-01
-3.001897037029266357e-01
-1.815250515937805176e-01
4.279967769980430603e-02
-1.742952913045883179e-01
2.133502662181854248e-01
5.312225222587585449e-02
-2.194055728614330292e-02
1.294556707143783569e-01
-7.005715277045965195e-03
-1.368266195058822632e-01
-3.436494469642639160e-01
1.117219924926757812e-01
-2.973554283380508423e-02
6.397941708564758301e-02
-9.670644998550415039e-02
-1.495676934719085693e-01
1.538532823324203491e-01
-1.475988030433654785e-01
-5.299951136112213135e-02
4.618641734123229980e-02
-4.624514840543270111e-03
2.314152121543884277e-01
-2.765360474586486816e-01
-2.588473632931709290e-02
-1.623969376087188721e-01
2.351001203060150146e-01
-1.316353976726531982e-01
-1.901771873235702515e-01
-2.877139747142791748e-01
8.903136104345321655e-02
6.001479551196098328e-02
-3.695577383041381836e-02
1.096339970827102661e-01
5.202430859208106995e-02
-3.523577377200126648e-02
2.569174394011497498e-03
-3.157865488901734352e-03
-1.525820344686508179e-01
7.419133931398391724e-02
7.698420435190200806e-02
-1.680048704147338867e-01
1.393287181854248047e-01
-5.344191193580627441e-02
1.047024354338645935e-01
-8.875387907028198242e-02
-1.429434418678283691e-01
1.745481602847576141e-02
-1.501793116331100464e-01
1.002778187394142151e-01
2.494356408715248108e-02
6.178670004010200500e-02
-1.298385709524154663e-01
-9.274388849735260010e-02
-1.557070314884185791e-01
-1.568887531757354736e-01
-1.442005336284637451e-01
-9.119176119565963745e-02
-1.471486836671829224e-01
1.015251800417900085e-01
3.816980123519897461e-02
-4.244046285748481750e-03
-1.202941127121448517e-02
6.551668047904968262e-02
1.376834511756896973e-01
-1.586063951253890991e-01
1.134736835956573486e-01
-1.667553782463073730e-01
1.069959253072738647e-01
-1.305356919765472412e-01
-5.177699029445648193e-02
-1.580188572406768799e-01
-6.422591954469680786e-02
-7.051215320825576782e-02
-1.991581916809082031e-02
-9.107496589422225952e-02
-1.377572864294052124e-01
-4.601348191499710083e-02
-2.573342621326446533e-02
-1.049747765064239502e-01
4.409088194370269775e-02
3.524740040302276611e-02
1.033443212509155273e-02
-6.245090812444686890e-02
1.543831229209899902e-01
1.276637613773345947e-01
-1.228727251291275024e-01
-6.611432880163192749e-02
-6.287651509046554565e-02
-7.111173123121261597e-02
9.782287478446960449e-02
-6.518306583166122437e-02
1.304938495159149170e-01
4.892174899578094482e-02
-1.056534051895141602e-02
5.586911737918853760e-02
-1.591507643461227417e-01
-7.528433948755264282e-02
-5.391620844602584839e-02
8.747610449790954590e-02
-9.845791012048721313e-02
2.104200422763824463e-02
3.520512580871582031e-02
6.179635226726531982e-02
4.605700075626373291e-02
-1.552726179361343384e-01
-1.319671273231506348e-01
1.487548947334289551e-01
5.880912393331527710e-02
2.518754005432128906e-01
4.286097884178161621e-01
-4.036451876163482666e-01
1.115705296397209167e-01
-1.133418604731559753e-01
7.269839942455291748e-02
1.000423952937126160e-01
5.602674791589379311e-04
6.215493008494377136e-02
1.633615195751190186e-01
3.404768556356430054e-02
-4.911638051271438599e-02
1.730613410472869873e-02
2.117128819227218628e-01
-4.584289491176605225e-01
-4.001757800579071045e-01
2.265304699540138245e-02
3.331709802150726318e-01
-3.850771486759185791e-02
-2.329951524734497070e-01
-1.770998537540435791e-01
2.620966546237468719e-02
-7.321573793888092041e-02
-3.523173332214355469e-01
-6.176743190735578537e-03
8.382014930248260498e-03
2.005463391542434692e-01
4.054659977555274963e-02
-6.268621087074279785e-01
3.645542263984680176e-01
2.679900228977203369e-01
-9.989564120769500732e-02
-4.195410907268524170e-01
-2.671477496623992920e-01
1.901690512895584106e-01
-1.516636013984680176e-01
2.471470832824707031e-02
-1.077758371829986572e-01
-1.556268334388732910e-02
1.357189714908599854e-01
1.399136483669281006e-01
-2.284036576747894287e-02
-1.318919956684112549e-01
-5.985037237405776978e-02
-1.156355589628219604e-01
4.475918412208557129e-02
-1.182901412248611450e-01
3.812783956527709961e-02
-1.474815756082534790e-01
-1.432714313268661499e-01
-2.778360247611999512e-02
-9.426882117986679077e-02
-1.592519879341125488e-02
-6.075943261384963989e-02
7.573673129081726074e-02
-3.714331239461898804e-02
8.269427716732025146e-02
9.532848000526428223e-02
-1.300468295812606812e-01
-1.391756683588027954e-01
-5.410732328891754150e-02
6.596408784389495850e-02
6.382973492145538330e-02
-1.562807261943817139e-01
-9.933564811944961548e-02
-1.582074910402297974e-01
3.800162672996520996e-02
1.377119421958923340e-01
-1.531884819269180298e-01
3.921544551849365234e-02
6.140938401222229004e-02
1.281589865684509277e-01
-7.988440990447998047e-02
7.313552498817443848e-02
-1.410181969404220581e-01
1.558741033077239990e-01
-2.311713993549346924e-02
1.201128810644149780e-01
-1.429129540920257568e-01
8.677262067794799805e-02
-7.860857993364334106e-02
8.111428469419479370e-02
-5.817391723394393921e-02
2.313795313239097595e-02
-2.069335728883743286e-01
-3.097040355205535889e-01
7.279468327760696411e-02
-5.814772564917802811e-03
1.237785369157791138e-01
7.090952247381210327e-02
-1.115397959947586060e-01
2.017919719219207764e-01
-1.100802496075630188e-01
-1.595681011676788330e-01
4.826811701059341431e-02
7.561356574296951294e-02
1.485196501016616821e-01
-1.002758461982011795e-02
1.762841045856475830e-01
-1.183593645691871643e-02
-4.207011163234710693e-01
-2.564153671264648438e-01
4.727651923894882202e-02
-2.870022654533386230e-01
1.679585129022598267e-01
1.773144751787185669e-01
4.933430850505828857e-01
2.029331326484680176e-01
8.349299430847167969e-02
4.518944025039672852e-02
-1.420940551906824112e-02
-3.502434119582176208e-03
-3.576229214668273926e-01
-2.915993332862854004e-02
1.694978401064872742e-02
-2.147970646619796753e-01
1.548725366592407227e-01
5.010029077529907227e-01
1.537396460771560669e-01
-1.254721134901046753e-01
-3.279055235907435417e-04
9.092653542757034302e-02
6.989722698926925659e-02
1.526401191949844360e-01
5.477668717503547668e-03
-2.160429060459136963e-01
1.015526503324508667e-01
2.596608698368072510e-01
8.931306749582290649e-02
2.516760118305683136e-02
2.521461434662342072e-02
-5.550951883196830750e-02
-1.399723738431930542e-01
-1.038086935877799988e-01
-1.594868749380111694e-01
2.194637060165405273e-01
-2.760441042482852936e-02
7.018250972032546997e-02
1.866303011775016785e-02
2.483546584844589233e-01
-1.474484950304031372e-01
-1.169787347316741943e-02
-3.114335536956787109e-01
-3.659511357545852661e-02
1.745675504207611084e-01
-1.148020476102828979e-01
-5.882515013217926025e-02
8.366999775171279907e-02
2.044808864593505859e-01
8.095683529973030090e-03
-1.768146008253097534e-01
2.749836146831512451e-01
1.411948651075363159e-01
-7.830817997455596924e-02
-4.765821248292922974e-02
2.494925167411565781e-03
-5.855193734169006348e-02
-3.655163645744323730e-01
-2.527773380279541016e-01
-2.339839749038219452e-02
-3.428276255726814270e-02
-1.628729850053787231e-01
3.620843216776847839e-02
2.052583172917366028e-02
1.476824581623077393e-01
1.332986056804656982e-01
1.413188725709915161e-01
-8.552969992160797119e-02
-9.336517006158828735e-02
8.706177026033401489e-02
-2.185025364160537720e-01
3.772315802052617073e-03
-1.775427311658859253e-01
2.942660264670848846e-02
2.854658663272857666e-01
7.325904816389083862e-02
8.496298640966415405e-02
9.700714051723480225e-02
1.975730210542678833e-01
2.626812458038330078e-01
7.710766792297363281e-02
-8.485146611928939819e-02
1.065324395895004272e-01
7.039543241262435913e-02
2.027321904897689819e-01
-4.919923469424247742e-02
-3.337948918342590332e-01
-4.493987560272216797e-02
7.836457341909408569e-02
-5.404555425047874451e-02
1.322003602981567383e-01
1.589357107877731323e-01
1.323195844888687134e-01
1.101402267813682556e-01
2.284724963828921318e-03
1.191929820924997330e-02
1.379146128892898560e-01
-6.510564591735601425e-03
1.186998561024665833e-01
-7.777797430753707886e-02
-5.631367117166519165e-02
2.449855674058198929e-03
-1.415185034275054932e-01
-7.758745551109313965e-02
6.793833523988723755e-02
-7.047186046838760376e-02
1.384475380182266235e-01
1.269086748361587524e-01
-1.035170927643775940e-01
-1.678301692008972168e-01
-9.200513362884521484e-02
8.424951881170272827e-02
1.225479170680046082e-01
-1.524741351604461670e-01
1.347933262586593628e-01
-7.351854443550109863e-02
4.510194063186645508e-02
-3.153516724705696106e-02
1.280319243669509888e-01
-2.625895850360393524e-02
-9.025986492633819580e-02
-4.352886602282524109e-02
1.102120950818061829e-01
2.985691837966442108e-02
6.809713318943977356e-03
3.292999416589736938e-02
9.731497615575790405e-03
7.070814818143844604e-02
-1.677721291780471802e-01
-1.600026339292526245e-02
-1.390833556652069092e-01
6.959042698144912720e-02
7.613536715507507324e-02
1.210926473140716553e-01
-4.833445847034454346e-01
1.188385710120201111e-01
2.077717483043670654e-01
-8.507654815912246704e-02
1.886272281408309937e-01
-7.070077955722808838e-02
-8.243138343095779419e-02
2.134337872266769409e-01
-3.690227493643760681e-02
-2.934846282005310059e-01
-2.643669545650482178e-01
-1.021294072270393372e-01
-1.218817606568336487e-01
-1.499624550342559814e-01
-3.942221105098724365e-01
-5.285384654998779297e-01
-2.699903547763824463e-01
-1.185876354575157166e-01
-3.751475811004638672e-01
-2.660351805388927460e-02
-1.204156037420034409e-02
1.712157204747200012e-02
-1.114518344402313232e-01
-1.824927330017089844e-01
1.330298930406570435e-02
9.168197214603424072e-02
-1.135909035801887512e-01
-1.635230630636215210e-01
-5.762644410133361816e-01
1.748793870210647583e-01
-2.431067377328872681e-01
-1.996698528528213501e-01
4.271689653396606445e-01
5.473345145583152771e-02
6.621510535478591919e-02
4.800752177834510803e-02
3.908852580934762955e-03
-2.451194077730178833e-02
-6.132755428552627563e-02
1.253458857536315918e-01
-2.808824181556701660e-02
1.304906606674194336e-02
7.223507761955261230e-02
-9.814812242984771729e-02
-1.025674715638160706e-01
8.000411093235015869e-02
-1.143305003643035889e-01
5.316400527954101562e-02
-1.351609379053115845e-01
-1.428236067295074463e-01
6.031098961830139160e-02
7.246199250221252441e-02
2.202591300010681152e-02
1.154784858226776123e-02
3.032328188419342041e-02
-1.442644298076629639e-01
1.352605223655700684e-01
-1.399629712104797363e-01
-9.992031753063201904e-02
-1.207748651504516602e-01
-8.982077986001968384e-02
-8.753997832536697388e-02
9.762704372406005859e-02
-2.027927339076995850e-02
-1.208006143569946289e-01
1.255378723144531250e-01
5.511777102947235107e-02
6.119681894779205322e-02
5.004405975341796875e-02
1.436966955661773682e-01
9.158453345298767090e-02
1.460233330726623535e-02
1.273357272148132324e-01
-1.293219029903411865e-01
-3.533362597227096558e-02
9.876793622970581055e-02
-1.184497773647308350e-02
4.773952811956405640e-02
1.973372846841812134e-01
7.769286632537841797e-02
1.472103148698806763e-01
-1.069380566477775574e-01
4.019349068403244019e-02
1.549356281757354736e-01
5.890996009111404419e-02
-1.006730198860168457e-01
-1.241451948881149292e-01
7.526898756623268127e-03
-2.797014117240905762e-01
3.761227801442146301e-02
-5.084038898348808289e-02
-8.028926700353622437e-02
-2.980424761772155762e-01
-5.966749787330627441e-01
-6.028527021408081055e-02
2.038526684045791626e-01
1.689353375695645809e-03
5.983542650938034058e-02
-9.324994869530200958e-03
-2.721753418445587158e-01
-4.196032881736755371e-02
3.185547143220901489e-02
7.875323295593261719e-02
-1.380616575479507446e-01
6.262745708227157593e-02
1.630743891000747681e-01
-9.331374615430831909e-02
-2.191894948482513428e-01
-9.947237372398376465e-02
7.698459178209304810e-02
4.594147950410842896e-02
-1.208921074867248535e-01
1.346962898969650269e-01
2.533017694950103760e-01
-1.097810342907905579e-01
2.061634138226509094e-02
-6.277847290039062500e-02
-9.292118251323699951e-02
-1.407628804445266724e-01
-2.339964266866445541e-03
-4.071906805038452148e-01
-3.571097254753112793e-01
-2.680892646312713623e-01
-7.796083390712738037e-02
-7.894107699394226074e-02
-3.076989203691482544e-02
-7.500425912439823151e-03
1.358088403940200806e-01
8.665015920996665955e-03
1.765009760856628418e-01
-2.449334971606731415e-02
-1.890259236097335815e-01
5.106453299522399902e-01
1.078443229198455811e-01
4.164827167987823486e-01
4.262654483318328857e-01
3.469130992889404297e-01
1.093680709600448608e-01
1.560893356800079346e-01
3.268658518791198730e-01
-1.850302815437316895e-01
-6.844584643840789795e-02
1.969276219606399536e-01
-7.558877021074295044e-02
1.743064820766448975e-01
4.335518181324005127e-01
1.478175371885299683e-01
2.626847624778747559e-01
2.406602501869201660e-01
5.760676041245460510e-02
1.916069239377975464e-01
-2.202580422163009644e-01
3.848623950034379959e-03
6.416003406047821045e-02
1.552989631891250610e-01
1.540212631225585938e-01
-3.838784098625183105e-01
3.928608000278472900e-01
-1.136485040187835693e-01
3.276231288909912109e-01
-8.071184158325195312e-02
7.137640565633773804e-02
3.687653690576553345e-02
-7.889189571142196655e-02
-3.958791494369506836e-01
4.343945905566215515e-02
2.611491642892360687e-02
2.768273651599884033e-01
1.885660588741302490e-01
2.934239208698272705e-01
-2.138530611991882324e-01
-7.012333273887634277e-01
3.471660315990447998e-01
1.590532809495925903e-01
-1.094336435198783875e-02
-3.966396674513816833e-02
3.349075466394424438e-02
1.009946539998054504e-01
-1.251359879970550537e-01
-1.352868378162384033e-01
8.750634640455245972e-02
2.495046854019165039e-01
-1.576059497892856598e-02
-1.926776319742202759e-01
2.887880504131317139e-01
-5.682182032614946365e-03
3.665409283712506294e-03
2.936440706253051758e-02
2.083382010459899902e-01
5.120578035712242126e-02
-5.058556050062179565e-02
3.361210227012634277e-02
4.607347771525382996e-02
1.738396733999252319e-01
-2.269645035266876221e-02
1.740594059228897095e-01
2.033501714468002319e-01
-1.470815390348434448e-01
-1.080646216869354248e-01
2.151326462626457214e-02
-7.581190019845962524e-02
-5.085424985736608505e-03
-2.930697798728942871e-01
8.360823243856430054e-02
1.200525015592575073e-01
1.052009640261530876e-03
-1.456462498754262924e-02
9.688406437635421753e-02
-2.582474052906036377e-01
-1.705580502748489380e-01
-8.323406428098678589e-02
1.286673396825790405e-01
5.990328732877969742e-03
-1.482566595077514648e-01
-6.237167119979858398e-02
-8.357274532318115234e-02
-3.044303273782134056e-03
-2.219418622553348541e-02
2.209598757326602936e-02
6.141402572393417358e-02
1.862002611160278320e-01
9.821063280105590820e-02
-7.470127195119857788e-03
-3.481479585170745850e-01
-6.138636171817779541e-02
-6.718309223651885986e-02
5.702146142721176147e-02
7.232319563627243042e-02
-1.337009817361831665e-01
-1.349376142024993896e-01
-5.314279114827513695e-04
7.514899224042892456e-02
-5.814818665385246277e-02
8.671241998672485352e-02
1.219540983438491821e-01
8.677803725004196167e-02
-3.688112646341323853e-02
-3.044950962066650391e-01
-1.564878821372985840e-01
-1.179916560649871826e-01
-1.751464158296585083e-01
-1.215409711003303528e-01
-7.868229597806930542e-02
4.949294030666351318e-02
-1.164109795354306698e-03
-3.891652449965476990e-02
-5.344950780272483826e-02
-1.334890425205230713e-01
6.561050657182931900e-03
3.272261619567871094e-01
-1.282013300806283951e-02
-1.342320162802934647e-02
8.725800365209579468e-02
4.726590961217880249e-02
8.713942766189575195e-02
-1.305206865072250366e-01
-1.068244427442550659e-01
1.438831835985183716e-01
9.123397991061210632e-03
-4.624196141958236694e-02
3.062411211431026459e-03
-2.052612751722335815e-01
2.522372603416442871e-01
2.029407918453216553e-01
-3.398345038294792175e-02
-9.254413843154907227e-02
-1.694411635398864746e-01
-8.639650419354438782e-03
4.771815729327499866e-04
-5.188506469130516052e-02
-9.285619854927062988e-02
2.127357274293899536e-01
1.622568699531257153e-03
1.037662327289581299e-01
6.158423423767089844e-02
4.155751317739486694e-02
-8.251845091581344604e-02
-9.955420345067977905e-02
-1.153772175312042236e-01
-8.817718178033828735e-02
2.658566646277904510e-02
-7.541555166244506836e-02
-3.815802559256553650e-02
3.849068656563758850e-02
6.490403413772583008e-02
7.690674811601638794e-02
5.667304247617721558e-02
-5.707912147045135498e-02
5.537115782499313354e-02
-8.947265893220901489e-02
-1.609270460903644562e-02
-3.307593613862991333e-02
4.958824813365936279e-02
-4.611722007393836975e-02
6.949470192193984985e-02
-3.082487732172012329e-02
-1.134921982884407043e-02
-1.163668259978294373e-01
3.362811729311943054e-02
-9.612933732569217682e-03
1.174931824207305908e-01
1.239314004778862000e-01
-1.405531615018844604e-01
5.652780085802078247e-02
4.223382472991943359e-02
-7.360362913459539413e-03
3.344147279858589172e-02
-1.691915243864059448e-01
-7.806541770696640015e-02
-1.659097820520401001e-01
3.204806894063949585e-02
-7.087804377079010010e-02
-8.448123186826705933e-02
-2.196364104747772217e-02
4.834231734275817871e-02
-1.043800264596939087e-01
1.218070089817047119e-01
1.306526660919189453e-01
6.264165043830871582e-02
-1.284285783767700195e-01
-1.435640454292297363e-01
4.904375970363616943e-02
3.351229429244995117e-02
5.797511339187622070e-02
1.341803669929504395e-01
-2.983957529067993164e-03
-8.217960596084594727e-03
-4.110064357519149780e-02
8.575077354907989502e-02
-8.209967613220214844e-02
8.365757763385772705e-02
1.477327346801757812e-01
4.104600846767425537e-02
8.574095368385314941e-02
-8.800156414508819580e-02
-1.888012886047363281e-02
-2.902117371559143066e-02
9.924852848052978516e-02
-1.342388391494750977e-01
-7.671149820089340210e-02
5.932319164276123047e-02
-1.496747583150863647e-01
-1.133081316947937012e-01
-1.579249054193496704e-01
7.083083689212799072e-02
5.925261974334716797e-02
-1.247539967298507690e-01
2.618521451950073242e-02
2.706687152385711670e-02
1.381449103355407715e-01
-1.087694913148880005e-01
5.514717102050781250e-02
3.117454051971435547e-02
1.268015801906585693e-01
-7.937245070934295654e-02
2.840024232864379883e-02
6.125558912754058838e-02
1.208488643169403076e-02
1.682040095329284668e-02
-1.109217107295989990e-02
-1.387171000242233276e-01
-3.048962354660034180e-02
-7.166471332311630249e-02
-1.028742641210556030e-01
1.318447291851043701e-01
-1.263151913881301880e-01
5.089041590690612793e-02
2.990821003913879395e-02
-1.215419694781303406e-01
-3.389400243759155273e-02
-6.220065802335739136e-02
-1.032053083181381226e-01
-1.517631709575653076e-01
-2.249412238597869873e-02
-7.398396730422973633e-03
1.366188228130340576e-01
-5.725090205669403076e-02
3.834487497806549072e-02
-9.654492884874343872e-02
8.643645048141479492e-02
-6.901822984218597412e-02
1.270980834960937500e-01
1.592018604278564453e-01
1.434920728206634521e-01
6.849209964275360107e-02
-1.262530684471130371e-03
-1.064680069684982300e-01
6.062239408493041992e-04
1.377735435962677002e-01
1.071504801511764526e-01
1.731861568987369537e-02
-9.261980652809143066e-02
2.511047124862670898e-01
2.205435782670974731e-01
4.816981032490730286e-03
-1.297220885753631592e-01
-2.748301625251770020e-02
-1.112983748316764832e-01
-1.584353744983673096e-01
-2.816660404205322266e-01
-2.642189264297485352e-01
-2.226788699626922607e-01
-1.927877217531204224e-01
-1.172855943441390991e-01
-5.641179531812667847e-02
-6.387653946876525879e-02
-2.717110514640808105e-01
1.674152612686157227e-01
1.328663527965545654e-01
1.913322657346725464e-01
8.545003086328506470e-02
8.527027070522308350e-02
1.523496508598327637e-01
-1.220395788550376892e-01
1.278443378396332264e-03
-8.844187855720520020e-02
-2.998729646205902100e-01
-1.060258001089096069e-01
-2.045710533857345581e-01
3.970240056514739990e-01
8.394500613212585449e-02
-8.458930253982543945e-02
-6.592021137475967407e-02
1.845299750566482544e-01
8.664292097091674805e-02
-1.619798243045806885e-01
-1.183087304234504700e-01
-4.921416984871029854e-05
-1.095042526721954346e-01
-1.590637862682342529e-02
8.749082684516906738e-03
-1.470197439193725586e-01
-1.564060300588607788e-01
1.350311338901519775e-01
4.278990626335144043e-02
-5.993682146072387695e-02
-1.359128803014755249e-01
-2.652253210544586182e-02
-7.793117314577102661e-02
2.381005883216857910e-02
1.423912048339843750e-01
-6.289780139923095703e-04
1.116633117198944092e-01
-9.418168663978576660e-02
-1.745964586734771729e-02
-4.001550376415252686e-02
-8.910567313432693481e-02
-1.297874897718429565e-01
-3.405910730361938477e-02
8.986777067184448242e-02
2.999459207057952881e-02
-1.220797002315521240e-02
-1.307607144117355347e-01
-1.068760454654693604e-02
-5.675843358039855957e-02
-1.460476964712142944e-01
-1.198421716690063477e-01
1.504735946655273438e-01
9.518542885780334473e-02
-8.964516222476959229e-02
-1.471042633056640625e-03
-4.556550830602645874e-02
3.559781610965728760e-02
1.566131412982940674e-01
-1.030558347702026367e-01
4.558584094047546387e-02
-8.736090362071990967e-02
2.021440863609313965e-02
-1.210419535636901855e-01
-5.993808805942535400e-02
1.210841238498687744e-01
-7.513499259948730469e-02
4.314488172531127930e-02
-6.706449389457702637e-02
1.059705317020416260e-01
4.429394006729125977e-02
-9.372910857200622559e-02
6.671287119388580322e-02
-6.302555650472640991e-02
-1.033047139644622803e-01
1.587144136428833008e-01
-7.359536737203598022e-02
1.596481502056121826e-01
8.146792650222778320e-03
-1.561175435781478882e-01
4.279461503028869629e-02
9.593051671981811523e-02
-9.991722553968429565e-02
-3.188787400722503662e-02
-7.014257460832595825e-02
-1.744197309017181396e-02
1.862972974777221680e-02
1.410260796546936035e-01
2.734360098838806152e-02
-1.188301816582679749e-01
-1.333657056093215942e-01
-1.018337607383728027e-01
1.537506580352783203e-01
-1.513792574405670166e-02
-1.585862189531326294e-01
6.420020759105682373e-02
1.558221280574798584e-01
2.924844622611999512e-02
-3.985668718814849854e-02
-3.206862509250640869e-02
8.670270442962646484e-03
-2.333068288862705231e-02
4.356597959995269775e-01
-3.007762730121612549e-01
-1.148204579949378967e-01
3.483331799507141113e-01
4.090824127197265625e-01
-2.338588237762451172e-01
-2.071337699890136719e-01
-2.283793687820434570e-02
1.000931188464164734e-01
2.223967611789703369e-01
2.246572226285934448e-01
5.181288719177246094e-01
-3.602439537644386292e-02
-3.690887615084648132e-02
8.909054100513458252e-02
-1.495959013700485229e-01
-1.181714087724685669e-01
-2.740739583969116211e-01
-2.482784986495971680e-01
-2.884390056133270264e-01
-2.681362442672252655e-02
1.424037963151931763e-01
1.134746894240379333e-01
2.832267582416534424e-01
1.264619976282119751e-01
6.750395894050598145e-02
-1.224319189786911011e-01
-2.951510250568389893e-02
-3.050280511379241943e-01
-2.912787199020385742e-01
-4.324123263359069824e-01
-1.787610054016113281e-01
1.108306497335433960e-01
3.551745712757110596e-01
-3.857403397560119629e-01
2.449536770582199097e-01
6.309664249420166016e-02
-3.676574528217315674e-01
1.426289379596710205e-01
1.158958971500396729e-01
1.830219924449920654e-01
-7.608858346939086914e-01
-6.207277774810791016e-01
1.369345281273126602e-02
7.082090526819229126e-02
-1.652545928955078125e-01
-2.503615021705627441e-01
6.700790673494338989e-02
6.210784986615180969e-02
-1.144489273428916931e-01
2.266195416450500488e-01
1.497174426913261414e-02
1.084918603301048279e-01
1.219601109623908997e-01
3.734591901302337646e-01
3.904342353343963623e-01
-5.713938549160957336e-02
3.232996761798858643e-01
1.533275991678237915e-01
-1.135411905124783516e-03
-1.011486947536468506e-01
-1.250977516174316406e-01
5.667211115360260010e-02
-2.081761211156845093e-01
2.890710905194282532e-02
-1.510941516607999802e-02
-1.978184282779693604e-02
6.489424705505371094e-01
4.983629882335662842e-01
-1.990037225186824799e-02
-5.259183049201965332e-02
-1.445810645818710327e-01
-1.376364231109619141e-01
-8.910241723060607910e-02
-1.609908640384674072e-01
-1.072530224919319153e-01
2.235647663474082947e-02
-8.754763007164001465e-02
4.184459149837493896e-02
7.192546129226684570e-02
-3.429982066154479980e-02
-1.579204797744750977e-01
6.951560080051422119e-02
-1.129676550626754761e-01
-1.580805778503417969e-01
4.958899319171905518e-02
2.818483114242553711e-02
1.509957313537597656e-01
-1.174787878990173340e-01
1.334579885005950928e-01
1.120426654815673828e-01
1.519371271133422852e-01
7.409068942070007324e-02
-9.358584880828857422e-03
1.445290744304656982e-01
-3.935516625642776489e-02
-1.491644531488418579e-01
6.117242574691772461e-02
7.387697696685791016e-04
6.328375637531280518e-02
1.927208900451660156e-02
-1.377039104700088501e-01
4.519128799438476562e-02
1.053381562232971191e-01
1.005211472511291504e-01
6.801995635032653809e-02
-1.299551874399185181e-01
9.072291851043701172e-02
2.777995169162750244e-02
-1.450231522321701050e-01
-1.093908250331878662e-01
4.604507982730865479e-02
1.119010448455810547e-01
-1.521759629249572754e-01
-1.321748793125152588e-01
1.639023423194885254e-02
